{"learner":{"attributes":{"scikit_learn":"{\"_estimator_type\": \"regressor\"}"},"feature_names":["Year","Kilometers_Driven","Fuel_Type","Transmission","Owner_Type","Mileage","Power","Engine","Seats","New_Price"],"feature_types":["int","int","int","int","int","float","float","int","int","float"],"gradient_booster":{"model":{"gbtree_model_param":{"num_parallel_tree":"1","num_trees":"100"},"iteration_indptr":[0,1,2,3,4,5,6,7,8,9,10,11,12,13,14,15,16,17,18,19,20,21,22,23,24,25,26,27,28,29,30,31,32,33,34,35,36,37,38,39,40,41,42,43,44,45,46,47,48,49,50,51,52,53,54,55,56,57,58,59,60,61,62,63,64,65,66,67,68,69,70,71,72,73,74,75,76,77,78,79,80,81,82,83,84,85,86,87,88,89,90,91,92,93,94,95,96,97,98,99,100],"tree_info":[0,0,0,0,0,0,0,0,0,0,0,0,0,0,0,0,0,0,0,0,0,0,0,0,0,0,0,0,0,0,0,0,0,0,0,0,0,0,0,0,0,0,0,0,0,0,0,0,0,0,0,0,0,0,0,0,0,0,0,0,0,0,0,0,0,0,0,0,0,0,0,0,0,0,0,0,0,0,0,0,0,0,0,0,0,0,0,0,0,0,0,0,0,0,0,0,0,0,0,0],"trees":[{"base_weights":[1.1633108E-7,-2.2199013E0,1.4409887E1,-3.0220892E0,4.794805E0,6.9727726E0,1.9313421E1,-4.3370495E0,-1.1110302E0,2.342712E-1,7.6688237E0,3.7916038E0,9.727264E0,1.6045002E1,2.5592484E1,-5.496009E0,-3.561836E0,-2.690488E0,5.281428E-1,2.0503175E0,-2.7542198E0,4.4878125E0,1.2687458E1,1.8390427E0,5.126445E0,7.0246153E0,1.2479082E1,1.1555564E1,1.8109386E1,2.1010218E1,2.8548555E1,-5.963718E0,-4.9648924E0,-4.553584E0,-2.8719907E0,-3.2327566E0,-7.3455405E-1,-3.615304E-1,2.7555907E0,-8.2008857E-1,4.2573943E0,-3.158195E0,9.228537E-1,1.0496459E0,6.680238E0,1.9279142E1,7.8225307E0,-2.3369275E-1,2.3848364E0,7.0601053E0,3.9351945E0,1.1086495E0,7.738794E0,1.3977799E1,8.352623E0,1.3059583E0,1.1903461E1,6.3620234E0,1.6137646E1,2.3172903E1,4.434679E0,2.888954E1,-2.1872507E-1,-1.8450903E0,-1.582668E0,-1.585312E0,-1.2791352E0,-1.5224739E0,-1.239922E0,-1.0167142E0,-6.681567E-1,-1.4581704E0,-7.6125693E-1,-5.4184073E-1,4.3586448E-1,-3.4221014E-1,2.0716141E-1,2.0572145E-1,1.4510089E0,-6.364322E-1,9.901364E-2,5.64527E-1,1.6289376E0,-1.1058658E0,-7.445923E-1,7.7623993E-1,-4.1658762E-1,-4.0371735E-2,8.0898374E-1,1.4306905E0,2.461896E0,3.9625273E0,7.242414E0,2.8224368E0,1.1250951E0,5.0023985E-1,-3.791779E-1,4.1041836E-1,1.0914724E0,1.4992031E0,2.6369133E0,7.175237E-1,1.4394424E0,7.424582E-1,-2.2576015E-1,6.303666E-1,2.3604014E0,4.3278666E0,1.3961624E0,2.785753E0,1.4678999E0,4.6335196E0,3.2643397E0,5.4998436E0,4.498319E0,4.0769587E0,7.209312E0,9.028626E0,6.6248713E0],"categories":[],"categories_nodes":[],"categories_segments":[],"categories_sizes":[],"default_left":[0,0,0,0,0,0,0,0,0,0,0,0,0,0,0,0,0,0,0,0,0,0,0,0,0,0,0,0,0,0,0,0,0,0,0,0,0,0,0,0,0,0,0,0,0,0,0,0,0,0,0,0,0,0,0,0,0,0,0,0,0,0,0,0,0,0,0,0,0,0,0,0,0,0,0,0,0,0,0,0,0,0,0,0,0,0,0,0,0,0,0,0,0,0,0,0,0,0,0,0,0,0,0,0,0,0,0,0,0,0,0,0,0,0,0,0,0,0,0],"id":0,"left_children":[1,3,5,7,9,11,13,15,17,19,21,23,25,27,29,31,33,35,37,39,41,43,45,47,49,51,53,55,57,59,61,63,65,67,69,71,73,75,77,79,81,83,85,87,89,91,93,95,97,99,101,103,105,107,109,-1,111,-1,113,115,-1,117,-1,-1,-1,-1,-1,-1,-1,-1,-1,-1,-1,-1,-1,-1,-1,-1,-1,-1,-1,-1,-1,-1,-1,-1,-1,-1,-1,-1,-1,-1,-1,-1,-1,-1,-1,-1,-1,-1,-1,-1,-1,-1,-1,-1,-1,-1,-1,-1,-1,-1,-1,-1,-1,-1,-1,-1,-1],"loss_changes":[1.7756833E5,2.7080902E4,2.6888234E4,1.0843656E4,6.473091E3,2.5568203E3,8.742453E3,2.2777344E3,4.560658E3,1.0476769E3,4.780254E3,3.5285583E2,1.087416E3,2.534039E3,1.4455625E3,2.2451172E2,1.0370957E3,9.49021E2,1.7151672E3,7.6371625E2,1.1135211E2,1.4025796E3,3.6011504E3,6.617192E1,1.6110205E2,3.3787524E2,3.5944727E2,1.8872754E2,8.853125E2,5.0600586E2,9.095703E2,3.6759766E1,8.6103516E1,1.1669824E2,2.951787E2,7.82126E2,4.6205115E2,5.0820688E2,1.0606558E3,8.002682E1,1.7917542E2,1.4416931E1,3.437476E1,1.4469012E2,2.9337402E2,1.1274766E3,4.1024023E2,2.7569843E1,5.3646515E1,6.3107544E1,5.911554E1,2.729011E1,3.6643066E1,1.6281934E2,2.88219E1,0E0,1.6142188E2,0E0,4.383203E1,4.348047E1,0E0,5.7703125E1,0E0,0E0,0E0,0E0,0E0,0E0,0E0,0E0,0E0,0E0,0E0,0E0,0E0,0E0,0E0,0E0,0E0,0E0,0E0,0E0,0E0,0E0,0E0,0E0,0E0,0E0,0E0,0E0,0E0,0E0,0E0,0E0,0E0,0E0,0E0,0E0,0E0,0E0,0E0,0E0,0E0,0E0,0E0,0E0,0E0,0E0,0E0,0E0,0E0,0E0,0E0,0E0,0E0,0E0,0E0,0E0,0E0],"parents":[2147483647,0,0,1,1,2,2,3,3,4,4,5,5,6,6,7,7,8,8,9,9,10,10,11,11,12,12,13,13,14,14,15,15,16,16,17,17,18,18,19,19,20,20,21,21,22,22,23,23,24,24,25,25,26,26,27,27,28,28,29,29,30,30,31,31,32,32,33,33,34,34,35,35,36,36,37,37,38,38,39,39,40,40,41,41,42,42,43,43,44,44,45,45,46,46,47,47,48,48,49,49,50,50,51,51,52,52,53,53,54,54,56,56,58,58,59,59,61,61],"right_children":[2,4,6,8,10,12,14,16,18,20,22,24,26,28,30,32,34,36,38,40,42,44,46,48,50,52,54,56,58,60,62,64,66,68,70,72,74,76,78,80,82,84,86,88,90,92,94,96,98,100,102,104,106,108,110,-1,112,-1,114,116,-1,118,-1,-1,-1,-1,-1,-1,-1,-1,-1,-1,-1,-1,-1,-1,-1,-1,-1,-1,-1,-1,-1,-1,-1,-1,-1,-1,-1,-1,-1,-1,-1,-1,-1,-1,-1,-1,-1,-1,-1,-1,-1,-1,-1,-1,-1,-1,-1,-1,-1,-1,-1,-1,-1,-1,-1,-1,-1],"split_conditions":[2.619E1,1.3901E2,2.014E3,8.67E0,2.013E3,2.012E3,5.086E1,2.013E3,2.015E3,2E0,1.65E2,3.445E1,3.99E1,3.445E1,2.016E3,2.011E3,6.05E0,1.948E3,1.582E3,1.54E2,2.012E3,1.683E1,1.731E1,2.907E1,6E4,2.803E1,1.815E1,1.797E3,2.9277E4,1.815E1,7.7652E4,6.9E0,6.44E0,4.8E0,2.016E3,2.012E3,2.013E3,2.017E3,1.458E1,1.658E1,2.011E3,2.01E3,1.65E2,2.015E3,2.016E3,2.015E3,1.77E2,1E0,2.011E3,2.011E3,2.01E3,4.6601E4,1.596E3,9.2E4,2.25E1,1.3059583E0,3.0566E4,6.3620234E0,1.428E1,1.136E1,4.434679E0,4.5501E4,-2.1872507E-1,-1.8450903E0,-1.582668E0,-1.585312E0,-1.2791352E0,-1.5224739E0,-1.239922E0,-1.0167142E0,-6.681567E-1,-1.4581704E0,-7.6125693E-1,-5.4184073E-1,4.3586448E-1,-3.4221014E-1,2.0716141E-1,2.0572145E-1,1.4510089E0,-6.364322E-1,9.901364E-2,5.64527E-1,1.6289376E0,-1.1058658E0,-7.445923E-1,7.7623993E-1,-4.1658762E-1,-4.0371735E-2,8.0898374E-1,1.4306905E0,2.461896E0,3.9625273E0,7.242414E0,2.8224368E0,1.1250951E0,5.0023985E-1,-3.791779E-1,4.1041836E-1,1.0914724E0,1.4992031E0,2.6369133E0,7.175237E-1,1.4394424E0,7.424582E-1,-2.2576015E-1,6.303666E-1,2.3604014E0,4.3278666E0,1.3961624E0,2.785753E0,1.4678999E0,4.6335196E0,3.2643397E0,5.4998436E0,4.498319E0,4.0769587E0,7.209312E0,9.028626E0,6.6248713E0],"split_indices":[9,6,0,9,0,0,9,0,0,2,6,9,9,9,0,0,9,7,7,6,0,9,9,9,1,9,5,7,1,5,1,9,9,9,0,0,0,0,9,9,0,0,6,0,0,0,6,3,0,0,0,1,7,1,5,0,1,0,5,5,0,1,0,0,0,0,0,0,0,0,0,0,0,0,0,0,0,0,0,0,0,0,0,0,0,0,0,0,0,0,0,0,0,0,0,0,0,0,0,0,0,0,0,0,0,0,0,0,0,0,0,0,0,0,0,0,0,0,0],"split_type":[0,0,0,0,0,0,0,0,0,0,0,0,0,0,0,0,0,0,0,0,0,0,0,0,0,0,0,0,0,0,0,0,0,0,0,0,0,0,0,0,0,0,0,0,0,0,0,0,0,0,0,0,0,0,0,0,0,0,0,0,0,0,0,0,0,0,0,0,0,0,0,0,0,0,0,0,0,0,0,0,0,0,0,0,0,0,0,0,0,0,0,0,0,0,0,0,0,0,0,0,0,0,0,0,0,0,0,0,0,0,0,0,0,0,0,0,0,0,0],"sum_hessian":[5.549E3,4.809E3,7.4E2,4.316E3,4.93E2,2.95E2,4.45E2,2.556E3,1.76E3,1.91E2,3.02E2,1.38E2,1.57E2,2.95E2,1.5E2,1.022E3,1.534E3,8.96E2,8.64E2,1.19E2,7.2E1,1.86E2,1.16E2,5.7E1,8.1E1,8.1E1,7.6E1,9.5E1,2E2,6.2E1,8.8E1,5.38E2,4.84E2,6.27E2,9.07E2,7.01E2,1.95E2,6.18E2,2.46E2,5.2E1,6.7E1,6.5E1,7E0,7.3E1,1.13E2,4.8E1,6.8E1,1.2E1,4.5E1,2.9E1,5.2E1,9E0,7.2E1,5.4E1,2.2E1,5E0,9E1,7.4E1,1.26E2,4.4E1,1.8E1,8.7E1,1E0,4.17E2,1.21E2,3.28E2,1.56E2,2.75E2,3.52E2,5.01E2,4.06E2,2.08E2,4.93E2,1.31E2,6.4E1,3.55E2,2.63E2,1.24E2,1.22E2,2.4E1,2.8E1,2.3E1,4.4E1,3.4E1,3.1E1,4E0,3E0,4.3E1,3E1,5.2E1,6.1E1,2.3E1,2.5E1,4.8E1,2E1,4E0,8E0,2.6E1,1.9E1,1.5E1,1.4E1,2E1,3.2E1,5E0,4E0,2E0,7E1,5.1E1,3E0,1.6E1,6E0,1.7E1,7.3E1,3.8E1,8.8E1,5E0,3.9E1,7.1E1,1.6E1],"tree_param":{"num_deleted":"0","num_feature":"10","num_nodes":"119","size_leaf_vector":"1"}},{"base_weights":[1.5595853E-2,-1.5521772E0,1.0192348E1,-2.7825305E0,7.6284814E-1,4.953242E0,1.3646568E1,-3.564326E0,-2.0602381E0,3.6630638E-2,6.1003637E0,2.7110724E0,6.894434E0,1.0223724E1,1.6933304E1,-4.168256E0,-3.1904051E0,-2.801306E0,-1.3130126E0,-1.3088318E0,1.4766592E0,2.5590036E0,1.0488363E1,2.3034472E0,7.2449427E0,5.957556E0,1.1219378E1,7.9170966E0,1.1607152E1,1.3816317E1,1.9821732E1,-4.5091124E0,-3.862446E0,-3.6328375E0,-2.6971712E0,-3.2996683E0,-2.3739228E0,-1.7685726E0,-8.9179903E-1,-2.2552845E0,3.8384866E-2,2.5967425E-1,3.263204E0,3.85333E0,-1.8704345E0,1.6419659E1,5.952256E0,1.3270311E0,3.5525784E0,1.1154473E1,4.3845596E0,3.2745528E0,6.783371E0,1.250243E1,1.7302364E0,4.7706766E0,8.798274E0,9.482284E0,1.3418901E1,1.1812097E1,1.7888111E1,2.023689E1,6.640848E0,-1.3814548E0,-8.524814E-1,-1.3052399E0,-1.1061989E0,-1.0959712E0,2.6893494E-1,-8.368742E-1,-5.728494E-1,-1.1140332E0,-9.228815E-1,-7.926238E-1,-6.1325365E-1,-5.17451E-1,-1.6706481E0,-3.7602314E-1,-1.7078102E-1,-1.0059001E0,-4.7277215E-1,-4.1841468E-1,3.2799417E-1,-7.056595E-1,2.4831143E-1,5.399583E-1,1.3736862E0,5.954729E-1,1.5785403E0,-6.5073645E-1,8.3951074E-1,4.2594357E0,6.892701E0,1.9859344E0,4.3601862E-1,-7.141537E-1,4.5516488E-1,8.222306E-1,1.8902456E0,3.7745264E0,1.0308945E0,1.7384585E0,3.0731011E-2,2.4831732E-1,1.2472876E0,2.1039891E0,6.036966E-1,1.19094945E-1,3.926356E0,7.995943E-1,1.9327024E0,1.4980356E0,2.7286599E0,3.1724005E0,2.2866287E0,4.1765237E0,2.5224006E0,7.9907304E-1,3.568895E0,9.722985E-1,5.467076E0,6.64333E0,5.3194723E0,2.583276E0,-1.8591629E-1],"categories":[],"categories_nodes":[],"categories_segments":[],"categories_sizes":[],"default_left":[0,0,0,0,0,0,0,0,0,0,0,0,0,0,0,0,0,0,0,0,0,0,0,0,0,0,0,0,0,0,0,0,0,0,0,0,0,0,0,0,0,0,0,0,0,0,0,0,0,0,0,0,0,0,0,0,0,0,0,0,0,0,0,0,0,0,0,0,0,0,0,0,0,0,0,0,0,0,0,0,0,0,0,0,0,0,0,0,0,0,0,0,0,0,0,0,0,0,0,0,0,0,0,0,0,0,0,0,0,0,0,0,0,0,0,0,0,0,0,0,0,0,0,0,0],"id":1,"left_children":[1,3,5,7,9,11,13,15,17,19,21,23,25,27,29,31,33,35,37,39,41,43,45,47,49,51,53,55,57,59,61,63,65,67,69,71,73,75,77,79,81,83,85,87,89,91,93,95,97,99,101,103,105,107,-1,109,111,113,115,117,119,121,123,-1,-1,-1,-1,-1,-1,-1,-1,-1,-1,-1,-1,-1,-1,-1,-1,-1,-1,-1,-1,-1,-1,-1,-1,-1,-1,-1,-1,-1,-1,-1,-1,-1,-1,-1,-1,-1,-1,-1,-1,-1,-1,-1,-1,-1,-1,-1,-1,-1,-1,-1,-1,-1,-1,-1,-1,-1,-1,-1,-1,-1,-1],"loss_changes":[8.8565164E4,1.3702443E4,1.3342305E4,1.766332E3,6.473026E3,1.2696436E3,4.844367E3,3.2701367E2,9.016953E2,2.8520012E3,3.0810576E3,2.4020032E2,5.733677E2,6.133262E2,1.7608594E3,4.23125E1,1.9424023E2,1.6682031E2,1.5500342E2,9.704203E2,1.5450076E3,6.493189E2,2.2968096E3,1.5262335E2,7.4102844E1,2.7025537E2,1.167605E2,1.9646631E2,3.963203E2,7.02709E2,4.9491016E2,2.9219727E1,1.0382324E1,4.854834E1,2.7136963E1,2.333252E1,3.3947266E1,5.538208E1,4.8970917E1,3.2807202E2,4.777479E2,6.310032E2,5.462715E2,2.1850635E2,4.232728E1,2.272373E2,1.4654016E2,5.5790604E1,1.0766962E2,8.290405E-1,4.7719086E1,6.786258E1,9.558594E1,1.4362695E2,0E0,5.6737793E1,2.9229004E1,5.3512695E1,6.1844727E1,2.841211E1,1.1291699E2,1.378125E2,7.685559E1,0E0,0E0,0E0,0E0,0E0,0E0,0E0,0E0,0E0,0E0,0E0,0E0,0E0,0E0,0E0,0E0,0E0,0E0,0E0,0E0,0E0,0E0,0E0,0E0,0E0,0E0,0E0,0E0,0E0,0E0,0E0,0E0,0E0,0E0,0E0,0E0,0E0,0E0,0E0,0E0,0E0,0E0,0E0,0E0,0E0,0E0,0E0,0E0,0E0,0E0,0E0,0E0,0E0,0E0,0E0,0E0,0E0,0E0,0E0,0E0,0E0,0E0],"parents":[2147483647,0,0,1,1,2,2,3,3,4,4,5,5,6,6,7,7,8,8,9,9,10,10,11,11,12,12,13,13,14,14,15,15,16,16,17,17,18,18,19,19,20,20,21,21,22,22,23,23,24,24,25,25,26,26,27,27,28,28,29,29,30,30,31,31,32,32,33,33,34,34,35,35,36,36,37,37,38,38,39,39,40,40,41,41,42,42,43,43,44,44,45,45,46,46,47,47,48,48,49,49,50,50,51,51,52,52,53,53,55,55,56,56,57,57,58,58,59,59,60,60,61,61,62,62],"right_children":[2,4,6,8,10,12,14,16,18,20,22,24,26,28,30,32,34,36,38,40,42,44,46,48,50,52,54,56,58,60,62,64,66,68,70,72,74,76,78,80,82,84,86,88,90,92,94,96,98,100,102,104,106,108,-1,110,112,114,116,118,120,122,124,-1,-1,-1,-1,-1,-1,-1,-1,-1,-1,-1,-1,-1,-1,-1,-1,-1,-1,-1,-1,-1,-1,-1,-1,-1,-1,-1,-1,-1,-1,-1,-1,-1,-1,-1,-1,-1,-1,-1,-1,-1,-1,-1,-1,-1,-1,-1,-1,-1,-1,-1,-1,-1,-1,-1,-1,-1,-1,-1,-1,-1,-1],"split_conditions":[2.619E1,1.034E1,2.014E3,2.014E3,1.65E2,2.012E3,4.376E1,2.011E3,7.01E0,2.015E3,2.014E3,5.515E1,5.21E1,3.34E1,2.016E3,2.009E3,6.44E0,7.3E1,2.016E3,1.948E3,1.2E2,2E0,1.731E1,2.011E3,4.6601E4,3.258E1,1.815E1,2.015E3,2.016E3,2.147E3,2.25E1,1.995E3,1.194E3,1.499E3,6E0,4.2E0,2.016E3,1.3E2,8.39E0,2.012E3,2.012E3,8.72E1,1.627E1,2.012E3,1.29E1,2.03E2,1.795E2,2.006E3,2.04E2,1.205E1,2E0,2.803E1,2.477E3,1.797E3,1.7302364E0,1.484E1,1.799E3,5.3213E4,5.638E4,1.15E2,1.478E2,3E4,2.018E3,-1.3814548E0,-8.524814E-1,-1.3052399E0,-1.1061989E0,-1.0959712E0,2.6893494E-1,-8.368742E-1,-5.728494E-1,-1.1140332E0,-9.228815E-1,-7.926238E-1,-6.1325365E-1,-5.17451E-1,-1.6706481E0,-3.7602314E-1,-1.7078102E-1,-1.0059001E0,-4.7277215E-1,-4.1841468E-1,3.2799417E-1,-7.056595E-1,2.4831143E-1,5.399583E-1,1.3736862E0,5.954729E-1,1.5785403E0,-6.5073645E-1,8.3951074E-1,4.2594357E0,6.892701E0,1.9859344E0,4.3601862E-1,-7.141537E-1,4.5516488E-1,8.222306E-1,1.8902456E0,3.7745264E0,1.0308945E0,1.7384585E0,3.0731011E-2,2.4831732E-1,1.2472876E0,2.1039891E0,6.036966E-1,1.19094945E-1,3.926356E0,7.995943E-1,1.9327024E0,1.4980356E0,2.7286599E0,3.1724005E0,2.2866287E0,4.1765237E0,2.5224006E0,7.9907304E-1,3.568895E0,9.722985E-1,5.467076E0,6.64333E0,5.3194723E0,2.583276E0,-1.8591629E-1],"split_indices":[9,9,0,0,6,0,9,0,9,0,0,9,9,9,0,0,9,6,0,7,6,2,9,0,1,9,5,0,0,7,5,7,7,7,8,9,0,6,9,0,0,6,9,0,5,6,6,0,6,5,2,9,7,7,0,5,7,1,1,6,6,1,0,0,0,0,0,0,0,0,0,0,0,0,0,0,0,0,0,0,0,0,0,0,0,0,0,0,0,0,0,0,0,0,0,0,0,0,0,0,0,0,0,0,0,0,0,0,0,0,0,0,0,0,0,0,0,0,0,0,0,0,0,0,0],"split_type":[0,0,0,0,0,0,0,0,0,0,0,0,0,0,0,0,0,0,0,0,0,0,0,0,0,0,0,0,0,0,0,0,0,0,0,0,0,0,0,0,0,0,0,0,0,0,0,0,0,0,0,0,0,0,0,0,0,0,0,0,0,0,0,0,0,0,0,0,0,0,0,0,0,0,0,0,0,0,0,0,0,0,0,0,0,0,0,0,0,0,0,0,0,0,0,0,0,0,0,0,0,0,0,0,0,0,0,0,0,0,0,0,0,0,0,0,0,0,0,0,0,0,0,0,0],"sum_hessian":[5.549E3,4.809E3,7.4E2,3.14E3,1.669E3,2.95E2,4.45E2,1.506E3,1.634E3,1.47E3,1.99E2,1.38E2,1.57E2,2.2E2,2.25E2,5.72E2,9.34E2,8.19E2,8.15E2,7.6E2,7.1E2,1.11E2,8.8E1,1.28E2,1E1,1.31E2,2.6E1,8.5E1,1.35E2,1.11E2,1.14E2,2.64E2,3.08E2,4.89E2,4.45E2,3.75E2,4.44E2,3.9E2,4.25E2,4.46E2,3.14E2,4.23E2,2.87E2,8.6E1,2.5E1,3.7E1,5.1E1,7.3E1,5.5E1,3E0,7E0,3.2E1,9.9E1,2E1,6E0,2E1,6.5E1,6.5E1,7E1,7.7E1,3.4E1,1.1E2,4E0,2.48E2,1.6E1,7.5E1,2.33E2,4.87E2,2E0,3.96E2,4.9E1,1.26E2,2.49E2,2.41E2,2.03E2,3.87E2,3E0,1.99E2,2.26E2,1.69E2,2.77E2,1.33E2,1.81E2,7.5E1,3.48E2,1.37E2,1.5E2,3.8E1,4.8E1,2.4E1,1E0,3E1,7E0,4.4E1,7E0,3E0,7E1,4.4E1,1.1E1,2E0,1E0,5E0,2E0,9E0,2.3E1,9.4E1,5E0,1E0,1.9E1,1E1,1E1,6E0,5.9E1,3.8E1,2.7E1,6.2E1,8E0,1E0,7.6E1,1E0,3.3E1,5.8E1,5.2E1,3E0,1E0],"tree_param":{"num_deleted":"0","num_feature":"10","num_nodes":"125","size_leaf_vector":"1"}},{"base_weights":[2.2819048E-2,-1.127094E0,6.9630766E0,-1.8465067E0,7.541684E-1,4.345651E0,1.0353823E1,-2.4885201E0,-1.3132417E0,1.6458347E-1,4.734633E0,2.5018578E0,6.0743527E0,7.5790787E0,1.3336141E1,-2.9757974E0,-2.2116945E0,-2.022396E0,-9.054768E-1,-6.9435346E-1,1.8379872E0,1.863145E0,8.018712E0,1.5067407E0,3.9272888E0,3.0515888E0,7.1964035E0,8.610837E0,5.8347335E0,5.837652E0,1.24957E1,-1.0079732E0,-2.8108714E0,-2.4095619E0,-1.7875836E0,-2.5638857E0,-1.8087097E0,-1.1506232E0,-3.559169E-1,-1.5006634E0,3.779183E-1,-1.7533461E0,2.2420197E0,3.0636191E0,-1.3020438E0,1.1787238E1,4.4181705E0,-4.309857E-1,1.9054534E0,2.0294347E0,5.0094275E0,2.4618707E0,5.6691513E0,9.171766E0,5.746945E0,7.4432855E0,1.0042326E1,6.023259E0,2.8199136E0,1.1456878E1,1.6889572E1,-1.0091181E0,-8.0563843E-1,-8.883384E-1,-6.875541E-1,-5.416438E-1,2.1514793E-1,7.699545E-2,-7.8757876E-1,-6.073343E-1,-4.3427008E-1,-4.6409628E-1,-2.7710006E-1,-2.4732037E-1,2.1540432E-3,-9.7603124E-1,-3.358435E-1,-5.5285454E-1,2.9369614E-1,-5.850273E-1,8.879554E-1,1.3546238E0,5.4130316E-1,4.2589018E-1,1.3852494E0,-6.0186803E-1,7.52981E-2,3.0929863E0,6.530001E0,1.471714E0,6.256305E-1,-8.466373E-1,-2.0661402E-2,4.02442E-1,9.9812573E-1,4.2125154E-1,1.2721701E0,1.6625544E0,7.786194E-1,1.5882846E0,6.194408E-1,2.7028456E0,9.8710215E-1,3.2972558E0,2.0562756E0,1.3567035E0,2.0569818E0,1.9608091E0,3.084428E0,7.793198E-1,3.044308E0,4.719552E-1,1.8418682E0,5.6825068E-2,9.924389E-1,8.2115334E-1,3.473819E0,5.282189E0,-1.5802883E-1],"categories":[],"categories_nodes":[],"categories_segments":[],"categories_sizes":[],"default_left":[0,0,0,0,0,0,0,0,0,0,0,0,0,0,0,0,0,0,0,0,0,0,0,0,0,0,0,0,0,0,0,0,0,0,0,0,0,0,0,0,0,0,0,0,0,0,0,0,0,0,0,0,0,0,0,0,0,0,0,0,0,0,0,0,0,0,0,0,0,0,0,0,0,0,0,0,0,0,0,0,0,0,0,0,0,0,0,0,0,0,0,0,0,0,0,0,0,0,0,0,0,0,0,0,0,0,0,0,0,0,0,0,0,0,0,0,0,0,0],"id":2,"left_children":[1,3,5,7,9,11,13,15,17,19,21,23,25,27,29,31,33,35,37,39,41,43,45,47,49,51,53,55,57,-1,59,-1,61,63,65,67,69,71,73,75,77,79,81,83,85,87,89,91,93,95,97,99,101,103,105,107,109,111,113,115,117,-1,-1,-1,-1,-1,-1,-1,-1,-1,-1,-1,-1,-1,-1,-1,-1,-1,-1,-1,-1,-1,-1,-1,-1,-1,-1,-1,-1,-1,-1,-1,-1,-1,-1,-1,-1,-1,-1,-1,-1,-1,-1,-1,-1,-1,-1,-1,-1,-1,-1,-1,-1,-1,-1,-1,-1,-1,-1],"loss_changes":[4.430069E4,6.4463027E3,6.9574023E3,1.1761738E3,3.092332E3,1.4095557E3,2.7373008E3,2.0411719E2,5.429617E2,1.6527893E3,1.5881924E3,3.033092E2,7.581299E2,2.737119E2,6.007539E2,2.622168E1,7.961084E1,7.485474E1,1.609881E2,6.576505E2,5.698268E2,3.5356384E2,1.01985205E3,1.012587E2,1.726167E2,8.4835205E1,4.254463E2,1.1077051E2,2.2801025E1,0E0,4.7747266E2,0E0,1.870044E1,3.7299316E1,1.57282715E1,3.3911865E1,3.571411E1,7.3055786E1,6.311497E1,2.8632678E2,4.3829468E2,4.286387E1,3.4110083E2,1.6459998E2,2.8937733E1,3.358003E2,3.7536377E1,1.9720547E1,8.2128204E1,4.1051834E1,5.7592285E1,4.980002E1,5.7761963E1,2.1555322E2,1.0352222E2,1.0016992E2,1.0506348E1,2.3981934E1,7.078888E0,9.8640625E1,3.3427832E2,0E0,0E0,0E0,0E0,0E0,0E0,0E0,0E0,0E0,0E0,0E0,0E0,0E0,0E0,0E0,0E0,0E0,0E0,0E0,0E0,0E0,0E0,0E0,0E0,0E0,0E0,0E0,0E0,0E0,0E0,0E0,0E0,0E0,0E0,0E0,0E0,0E0,0E0,0E0,0E0,0E0,0E0,0E0,0E0,0E0,0E0,0E0,0E0,0E0,0E0,0E0,0E0,0E0,0E0,0E0,0E0,0E0,0E0],"parents":[2147483647,0,0,1,1,2,2,3,3,4,4,5,5,6,6,7,7,8,8,9,9,10,10,11,11,12,12,13,13,14,14,15,15,16,16,17,17,18,18,19,19,20,20,21,21,22,22,23,23,24,24,25,25,26,26,27,27,28,28,30,30,32,32,33,33,34,34,35,35,36,36,37,37,38,38,39,39,40,40,41,41,42,42,43,43,44,44,45,45,46,46,47,47,48,48,49,49,50,50,51,51,52,52,53,53,54,54,55,55,56,56,57,57,58,58,59,59,60,60],"right_children":[2,4,6,8,10,12,14,16,18,20,22,24,26,28,30,32,34,36,38,40,42,44,46,48,50,52,54,56,58,-1,60,-1,62,64,66,68,70,72,74,76,78,80,82,84,86,88,90,92,94,96,98,100,102,104,106,108,110,112,114,116,118,-1,-1,-1,-1,-1,-1,-1,-1,-1,-1,-1,-1,-1,-1,-1,-1,-1,-1,-1,-1,-1,-1,-1,-1,-1,-1,-1,-1,-1,-1,-1,-1,-1,-1,-1,-1,-1,-1,-1,-1,-1,-1,-1,-1,-1,-1,-1,-1,-1,-1,-1,-1,-1,-1,-1,-1,-1,-1],"split_conditions":[2.522E1,1.173E1,2.015E3,6.56E0,1.65E2,3.922E1,4.376E1,2.012E3,2.014E3,2.016E3,2.014E3,2.013E3,2.012E3,4.7234E4,1.29E1,4.15E0,8E1,2.011E3,2.017E3,1.948E3,1.242E3,2E0,1.731E1,2.01E3,1.484E1,5.515E1,1.467E1,3.717E1,1E0,5.837652E0,2.018E3,-1.0079732E0,2.008E3,3.87E0,1.499E3,3.1271E4,9.37E0,7.89E0,8.39E0,8E1,2.011E3,3E0,1.43E1,2.012E3,2.133E1,2.987E3,1.743E2,2.006E3,3.34E1,2.771E3,7E4,1.969E3,4.6601E4,5.638E4,2.014E3,2.018E3,1.174E1,1.136E1,2.016E3,1.799E3,4.8719E4,-1.0091181E0,-8.0563843E-1,-8.883384E-1,-6.875541E-1,-5.416438E-1,2.1514793E-1,7.699545E-2,-7.8757876E-1,-6.073343E-1,-4.3427008E-1,-4.6409628E-1,-2.7710006E-1,-2.4732037E-1,2.1540432E-3,-9.7603124E-1,-3.358435E-1,-5.5285454E-1,2.9369614E-1,-5.850273E-1,8.879554E-1,1.3546238E0,5.4130316E-1,4.2589018E-1,1.3852494E0,-6.0186803E-1,7.52981E-2,3.0929863E0,6.530001E0,1.471714E0,6.256305E-1,-8.466373E-1,-2.0661402E-2,4.02442E-1,9.9812573E-1,4.2125154E-1,1.2721701E0,1.6625544E0,7.786194E-1,1.5882846E0,6.194408E-1,2.7028456E0,9.8710215E-1,3.2972558E0,2.0562756E0,1.3567035E0,2.0569818E0,1.9608091E0,3.084428E0,7.793198E-1,3.044308E0,4.719552E-1,1.8418682E0,5.6825068E-2,9.924389E-1,8.2115334E-1,3.473819E0,5.282189E0,-1.5802883E-1],"split_indices":[9,9,0,9,6,9,9,0,0,0,0,0,0,1,5,9,6,0,0,7,7,2,9,0,5,9,5,9,4,0,0,0,0,9,7,1,9,9,9,6,0,2,5,0,9,7,6,0,9,7,1,7,1,1,0,0,5,5,0,7,1,0,0,0,0,0,0,0,0,0,0,0,0,0,0,0,0,0,0,0,0,0,0,0,0,0,0,0,0,0,0,0,0,0,0,0,0,0,0,0,0,0,0,0,0,0,0,0,0,0,0,0,0,0,0,0,0,0,0],"split_type":[0,0,0,0,0,0,0,0,0,0,0,0,0,0,0,0,0,0,0,0,0,0,0,0,0,0,0,0,0,0,0,0,0,0,0,0,0,0,0,0,0,0,0,0,0,0,0,0,0,0,0,0,0,0,0,0,0,0,0,0,0,0,0,0,0,0,0,0,0,0,0,0,0,0,0,0,0,0,0,0,0,0,0,0,0,0,0,0,0,0,0,0,0,0,0,0,0,0,0,0,0,0,0,0,0,0,0,0,0,0,0,0,0,0,0,0,0,0,0],"sum_hessian":[5.549E3,4.761E3,7.88E2,3.444E3,1.317E3,4.46E2,3.42E2,1.561E3,1.883E3,1.148E3,1.69E2,2.17E2,2.29E2,1.79E2,1.63E2,5.62E2,9.99E2,6.86E2,1.197E3,7.59E2,3.89E2,9.1E1,7.8E1,1.29E2,8.8E1,6.3E1,1.66E2,1.1E2,6.9E1,1.7E1,1.46E2,1.63E2,3.99E2,6.78E2,3.21E2,1.91E2,4.95E2,8.27E2,3.7E2,4.33E2,3.26E2,3.9E1,3.5E2,6.6E1,2.5E1,3.7E1,4.1E1,2.2E1,1.07E2,3.3E1,5.5E1,5.3E1,1E1,6.8E1,9.8E1,6.4E1,4.6E1,6.4E1,5E0,1.21E2,2.5E1,6.9E1,3.3E2,1.15E2,5.63E2,3.19E2,2E0,4E0,1.87E2,3.07E2,1.88E2,2.99E2,5.28E2,1.61E2,2.09E2,7.6E1,3.57E2,6.9E1,2.57E2,3.8E1,1E0,5.5E1,2.95E2,3.3E1,3.3E1,1.7E1,8E0,3.4E1,3E0,3.3E1,8E0,2E0,2E1,7.8E1,2.9E1,2.7E1,6E0,4.4E1,1.1E1,5E0,4.8E1,3E0,7E0,3.6E1,3.2E1,4.9E1,4.9E1,5.1E1,1.3E1,1E0,4.5E1,2E0,6.2E1,1E0,4E0,2E0,1.19E2,2.4E1,1E0],"tree_param":{"num_deleted":"0","num_feature":"10","num_nodes":"119","size_leaf_vector":"1"}},{"base_weights":[2.5521092E-2,-7.32331E-1,5.3119383E0,-1.0066271E0,2.1893299E0,3.3679485E0,7.749925E0,-1.4770498E0,-2.7053496E-1,1.252495E-1,3.8030114E0,1.5136757E0,4.2928205E0,6.151996E0,1.0103298E1,-1.7550951E0,-1.0093423E0,-1.1502095E0,2.4352592E-1,8.8930416E-1,-9.7221375E-1,3.357978E0,1.3435957E1,1.1291393E0,3.5913956E0,2.9367056E0,5.4424396E0,5.5276675E0,8.687593E0,1.2641203E1,8.58116E0,-2.0867949E0,-1.5246246E0,-1.445956E0,-7.650052E-1,-1.3604059E0,3.5701033E-1,9.1172725E-2,2.3731346E0,-2.5090172E0,1.2579125E0,-1.183148E0,7.295358E-1,4.8356447E0,1.6231629E0,1.63572E1,2.1729822E0,3.7413985E-1,2.1280107E0,6.4602697E-1,4.287361E0,5.3178897E0,2.6502428E0,6.5516305E0,3.681467E0,4.685975E0,6.1890397E0,2.74446E0,-1.0459553E0,1.4526631E1,9.395816E0,1.0961091E1,6.7661824E0,-7.299926E-1,-5.959775E-1,-5.5829537E-1,-4.004458E-1,-4.8932028E-1,-3.33317E-1,-2.1427941E-1,-5.605414E-1,-7.823076E-1,-3.5405445E-1,-3.4996438E-1,2.1969649E-1,-3.2308742E-1,8.989874E-2,5.105056E-1,1.1276463E0,-7.973618E-1,-1.5306988E-1,8.22887E-1,1.6217087E-1,-2.7624288E-1,-7.376486E-1,8.210853E-1,4.0947016E-2,2.1438954E0,1.1074938E0,7.0478773E-1,-2.7762347E-1,1.0418274E0,5.471861E0,-8.623634E-2,2.6477247E-1,1.4421421E0,4.8924667E-1,3.5305732E-1,-2.215944E-1,1.7040157E0,5.0559676E-1,1.6993919E-1,1.7095023E0,5.5339515E-1,9.5387447E-1,2.609209E0,1.5970362E0,1.2566026E0,4.4179407E-1,5.806641E-1,1.4463873E0,2.1879034E0,1.5890138E0,4.505004E0,1.7292114E0,2.9300742E0,4.0740854E-1,2.654389E0,3.8720949E0,2.278227E0,1.1859119E0],"categories":[],"categories_nodes":[],"categories_segments":[],"categories_sizes":[],"default_left":[0,0,0,0,0,0,0,0,0,0,0,0,0,0,0,0,0,0,0,0,0,0,0,0,0,0,0,0,0,0,0,0,0,0,0,0,0,0,0,0,0,0,0,0,0,0,0,0,0,0,0,0,0,0,0,0,0,0,0,0,0,0,0,0,0,0,0,0,0,0,0,0,0,0,0,0,0,0,0,0,0,0,0,0,0,0,0,0,0,0,0,0,0,0,0,0,0,0,0,0,0,0,0,0,0,0,0,0,0,0,0,0,0,0,0,0,0,0,0,0,0],"id":3,"left_children":[1,3,5,7,9,11,13,15,17,19,21,23,25,27,29,31,33,35,37,39,41,43,45,47,49,51,53,55,57,59,61,63,65,67,69,71,73,75,77,79,81,83,85,87,89,91,-1,93,95,97,99,101,103,105,107,109,111,-1,-1,113,115,117,119,-1,-1,-1,-1,-1,-1,-1,-1,-1,-1,-1,-1,-1,-1,-1,-1,-1,-1,-1,-1,-1,-1,-1,-1,-1,-1,-1,-1,-1,-1,-1,-1,-1,-1,-1,-1,-1,-1,-1,-1,-1,-1,-1,-1,-1,-1,-1,-1,-1,-1,-1,-1,-1,-1,-1,-1,-1,-1],"loss_changes":[2.2238979E4,3.8930012E3,3.2725352E3,1.5367129E3,1.3884541E3,6.6062354E2,1.0960859E3,3.503872E2,7.8350134E2,1.5515263E2,9.580359E2,1.0060843E2,3.8780225E2,2.4642432E2,3.6667773E2,1.26549805E2,1.0685498E2,2.0292877E2,3.5473486E2,1.3969495E2,2.8143906E1,5.689336E2,6.2423706E1,8.3668335E1,3.8227753E1,6.844299E1,2.4738281E2,5.5612793E1,2.2815698E2,1.3274414E2,2.7139697E2,1.9228027E1,6.1677734E1,2.0629517E1,3.5115173E1,1.2303052E2,4.602717E1,2.4922395E2,6.152423E1,1.916687E0,1.03980545E2,2.0492783E1,1.0340834E1,2.934707E2,1.9648657E2,8.217566E1,0E0,2.2118252E1,5.609796E1,4.5444236E0,4.840866E1,1.8464294E1,4.1042175E1,1.750686E2,5.657019E1,1.7092773E1,4.2149414E1,0E0,0E0,2.5089355E1,4.3409546E1,2.1493164E1,8.177319E1,0E0,0E0,0E0,0E0,0E0,0E0,0E0,0E0,0E0,0E0,0E0,0E0,0E0,0E0,0E0,0E0,0E0,0E0,0E0,0E0,0E0,0E0,0E0,0E0,0E0,0E0,0E0,0E0,0E0,0E0,0E0,0E0,0E0,0E0,0E0,0E0,0E0,0E0,0E0,0E0,0E0,0E0,0E0,0E0,0E0,0E0,0E0,0E0,0E0,0E0,0E0,0E0,0E0,0E0,0E0,0E0,0E0,0E0],"parents":[2147483647,0,0,1,1,2,2,3,3,4,4,5,5,6,6,7,7,8,8,9,9,10,10,11,11,12,12,13,13,14,14,15,15,16,16,17,17,18,18,19,19,20,20,21,21,22,22,23,23,24,24,25,25,26,26,27,27,28,28,29,29,30,30,31,31,32,32,33,33,34,34,35,35,36,36,37,37,38,38,39,39,40,40,41,41,42,42,43,43,44,44,45,45,47,47,48,48,49,49,50,50,51,51,52,52,53,53,54,54,55,55,56,56,59,59,60,60,61,61,62,62],"right_children":[2,4,6,8,10,12,14,16,18,20,22,24,26,28,30,32,34,36,38,40,42,44,46,48,50,52,54,56,58,60,62,64,66,68,70,72,74,76,78,80,82,84,86,88,90,92,-1,94,96,98,100,102,104,106,108,110,112,-1,-1,114,116,118,120,-1,-1,-1,-1,-1,-1,-1,-1,-1,-1,-1,-1,-1,-1,-1,-1,-1,-1,-1,-1,-1,-1,-1,-1,-1,-1,-1,-1,-1,-1,-1,-1,-1,-1,-1,-1,-1,-1,-1,-1,-1,-1,-1,-1,-1,-1,-1,-1,-1,-1,-1,-1,-1,-1,-1,-1,-1,-1],"split_conditions":[2.803E1,1.408E2,2.015E3,9.1E0,2.013E3,2.012E3,5.086E1,2.015E3,2.014E3,2E0,2.03E2,4.932E1,4.002E1,2.018E3,3E4,5.39E0,7.4E1,2.354E3,1.731E1,1.658E1,2.012E3,5.21E4,6.0146E4,2.011E3,1.17E1,3.1271E4,1.71E1,3.717E1,5.638E4,1.833E1,1.421E1,3.6E0,2.012E3,2.017E3,9.0246E4,2.009E3,2.009E3,8.72E1,2.017E3,1.4E5,1.731E1,2E0,3.9163E4,1.731E1,1.745E2,2.014E3,2.1729822E0,6.8525E4,3.4697E4,2.01E3,1.416E1,1.213E2,1.526E1,4.4738E4,2.25E1,1.596E3,1.71E1,2.74446E0,-1.0459553E0,6.463E1,1E0,2.147E3,5.21E4,-7.299926E-1,-5.959775E-1,-5.5829537E-1,-4.004458E-1,-4.8932028E-1,-3.33317E-1,-2.1427941E-1,-5.605414E-1,-7.823076E-1,-3.5405445E-1,-3.4996438E-1,2.1969649E-1,-3.2308742E-1,8.989874E-2,5.105056E-1,1.1276463E0,-7.973618E-1,-1.5306988E-1,8.22887E-1,1.6217087E-1,-2.7624288E-1,-7.376486E-1,8.210853E-1,4.0947016E-2,2.1438954E0,1.1074938E0,7.0478773E-1,-2.7762347E-1,1.0418274E0,5.471861E0,-8.623634E-2,2.6477247E-1,1.4421421E0,4.8924667E-1,3.5305732E-1,-2.215944E-1,1.7040157E0,5.0559676E-1,1.6993919E-1,1.7095023E0,5.5339515E-1,9.5387447E-1,2.609209E0,1.5970362E0,1.2566026E0,4.4179407E-1,5.806641E-1,1.4463873E0,2.1879034E0,1.5890138E0,4.505004E0,1.7292114E0,2.9300742E0,4.0740854E-1,2.654389E0,3.8720949E0,2.278227E0,1.1859119E0],"split_indices":[9,6,0,9,0,0,9,0,0,2,6,9,9,0,1,9,6,7,9,9,0,1,1,0,5,1,5,9,1,5,5,9,0,0,1,0,0,6,0,1,9,4,1,9,6,0,0,1,1,0,5,6,5,1,5,7,5,0,0,9,4,7,1,0,0,0,0,0,0,0,0,0,0,0,0,0,0,0,0,0,0,0,0,0,0,0,0,0,0,0,0,0,0,0,0,0,0,0,0,0,0,0,0,0,0,0,0,0,0,0,0,0,0,0,0,0,0,0,0,0,0],"split_type":[0,0,0,0,0,0,0,0,0,0,0,0,0,0,0,0,0,0,0,0,0,0,0,0,0,0,0,0,0,0,0,0,0,0,0,0,0,0,0,0,0,0,0,0,0,0,0,0,0,0,0,0,0,0,0,0,0,0,0,0,0,0,0,0,0,0,0,0,0,0,0,0,0,0,0,0,0,0,0,0,0,0,0,0,0,0,0,0,0,0,0,0,0,0,0,0,0,0,0,0,0,0,0,0,0,0,0,0,0,0,0,0,0,0,0,0,0,0,0,0,0],"sum_hessian":[5.549E3,4.854E3,6.95E2,4.438E3,4.16E2,3.88E2,3.07E2,2.707E3,1.731E3,1.83E2,2.33E2,1.3E2,2.58E2,1.85E2,1.22E2,1.696E3,1.011E3,6.38E2,1.093E3,1.08E2,7.5E1,2.24E2,9E0,1.11E2,1.9E1,1.2E2,1.38E2,1.51E2,3.4E1,4.3E1,7.9E1,6.92E2,1.004E3,3.61E2,6.5E2,5.6E2,7.8E1,1.021E3,7.2E1,1E1,9.8E1,6.7E1,8E0,1.2E2,1.04E2,5E0,4E0,6.4E1,4.7E1,4E0,1.5E1,1.1E1,1.09E2,8.3E1,5.5E1,7E1,8.1E1,3.3E1,1E0,2.5E1,1.8E1,3.2E1,4.7E1,1.5E2,5.42E2,3.59E2,6.45E2,2.3E2,1.31E2,6.23E2,2.7E1,6.9E1,4.91E2,1.5E1,6.3E1,1.54E2,8.67E2,5E1,2.2E1,9E0,1E0,3.1E1,6.7E1,5.7E1,1E1,1E0,7E0,3.8E1,8.2E1,8.1E1,2.3E1,1E0,4E0,2.8E1,3.6E1,6E0,4.1E1,3E0,1E0,9E0,6E0,1E0,1E1,4.5E1,6.4E1,2.8E1,5.5E1,4.4E1,1.1E1,4E0,6.6E1,3.3E1,4.8E1,2.3E1,2E0,1.7E1,1E0,1.8E1,1.4E1,3.5E1,1.2E1],"tree_param":{"num_deleted":"0","num_feature":"10","num_nodes":"121","size_leaf_vector":"1"}},{"base_weights":[2.6749654E-2,-5.5368876E-1,3.5299447E0,-9.0685076E-1,5.1072663E-1,1.6808652E0,4.807996E0,-1.192959E0,-5.949929E-1,4.0536535E-1,7.7382174E0,1.3069501E0,3.7037807E0,3.8463304E0,6.788647E0,-1.4260733E0,-1.0128495E0,-8.448311E-1,-1.1554924E-1,-3.3636737E-1,1.3378241E0,-1.3827083E0,9.791466E0,8.990006E-1,2.2561605E0,3.0369112E0,6.4043074E0,5.015982E0,3.232049E0,8.763498E0,5.8400126E0,-1.6421486E0,-1.2702262E0,-1.2032834E0,-8.536103E-1,-8.3282715E-1,-1.5182052E0,-2.6680166E-1,3.5266516E-1,-7.485779E-1,5.617233E-1,9.6090335E-1,4.7777853E0,-5.5416585E-3,-5.4938895E-1,1.0627769E1,9.547289E-1,-1.3067873E-1,1.1424962E0,4.186065E0,1.9299785E0,1.8760378E0,5.001414E0,8.6046714E-1,2.3082938E0,3.7998867E0,5.579074E0,2.452226E0,3.7636945E0,1.0194899E1,6.6735015E0,6.5236826E0,2.9641795E0,-6.702372E-1,-4.8107937E-1,-5.514503E-1,-3.482505E-1,-6.2268305E-1,-3.5174698E-1,-2.3190168E-1,-4.4015864E-1,-3.4848255E-1,-2.1513298E-1,-6.657885E-2,-4.1504088E-1,3.5364848E-2,2.2606735E-1,-3.4609258E-1,2.2460231E-1,-2.2520392E-1,3.5161674E-1,-2.3164418E-1,4.3521887E-1,2.2744343E0,7.16832E-1,3.9265778E0,1.7956544E0,9.616977E-2,-3.4052676E-1,7.6492673E-1,2.8602067E-1,3.026849E-1,1.4339957E0,6.7142093E-1,3.0511123E-1,1.078115E0,-2.9500458E-2,1.5899146E0,1.2377973E-1,7.887074E-1,1.602565E0,4.621921E-1,1.7391541E0,8.0077183E-1,7.522478E-2,1.0573226E0,2.6117885E0,1.9194437E0,3.6503959E0,2.1320837E0,4.678133E-1,3.530593E-1,2.032894E0,1.4341604E0,-5.718432E-2],"categories":[],"categories_nodes":[],"categories_segments":[],"categories_sizes":[],"default_left":[0,0,0,0,0,0,0,0,0,0,0,0,0,0,0,0,0,0,0,0,0,0,0,0,0,0,0,0,0,0,0,0,0,0,0,0,0,0,0,0,0,0,0,0,0,0,0,0,0,0,0,0,0,0,0,0,0,0,0,0,0,0,0,0,0,0,0,0,0,0,0,0,0,0,0,0,0,0,0,0,0,0,0,0,0,0,0,0,0,0,0,0,0,0,0,0,0,0,0,0,0,0,0,0,0,0,0,0,0,0,0,0,0,0,0],"id":4,"left_children":[1,3,5,7,9,11,13,15,17,19,21,23,25,27,29,31,33,35,37,39,41,43,45,47,49,51,53,55,57,59,61,63,65,67,69,71,-1,73,75,77,79,81,83,-1,-1,85,-1,87,89,91,93,95,97,-1,-1,99,101,103,105,107,109,111,113,-1,-1,-1,-1,-1,-1,-1,-1,-1,-1,-1,-1,-1,-1,-1,-1,-1,-1,-1,-1,-1,-1,-1,-1,-1,-1,-1,-1,-1,-1,-1,-1,-1,-1,-1,-1,-1,-1,-1,-1,-1,-1,-1,-1,-1,-1,-1,-1,-1,-1,-1,-1],"loss_changes":[1.1287263E4,1.7905519E3,1.8564971E3,3.183589E2,9.00761E2,2.4023248E2,8.6149023E2,7.681787E1,2.0509125E2,8.103548E2,3.319068E2,1.0446002E2,7.059564E1,2.1083252E2,2.3170703E2,2.5190674E1,3.096521E1,5.2768494E1,4.17354E1,2.4216266E2,6.6834076E2,2.4140925E0,4.3558105E1,4.8789444E1,4.354001E1,8.639981E1,1.8985077E1,5.20708E1,7.783423E1,7.257056E1,1.8710522E2,4.085266E0,2.7376953E1,1.0406372E1,2.7452515E1,4.1930298E1,0E0,2.1990719E1,1.3464809E1,2.725681E2,1.6588626E2,3.9925116E2,3.2338635E2,0E0,0E0,5.8743286E1,0E0,1.7586792E1,3.9347443E1,1.5933716E1,1.7975159E1,9.5310844E1,1.83461E1,0E0,0E0,5.275824E1,5.36062E1,4.137262E1,1.1477832E2,1.16921875E2,3.7684692E1,1.05489746E2,1.2697621E2,0E0,0E0,0E0,0E0,0E0,0E0,0E0,0E0,0E0,0E0,0E0,0E0,0E0,0E0,0E0,0E0,0E0,0E0,0E0,0E0,0E0,0E0,0E0,0E0,0E0,0E0,0E0,0E0,0E0,0E0,0E0,0E0,0E0,0E0,0E0,0E0,0E0,0E0,0E0,0E0,0E0,0E0,0E0,0E0,0E0,0E0,0E0,0E0,0E0,0E0,0E0,0E0],"parents":[2147483647,0,0,1,1,2,2,3,3,4,4,5,5,6,6,7,7,8,8,9,9,10,10,11,11,12,12,13,13,14,14,15,15,16,16,17,17,18,18,19,19,20,20,21,21,22,22,23,23,24,24,25,25,26,26,27,27,28,28,29,29,30,30,31,31,32,32,33,33,34,34,35,35,37,37,38,38,39,39,40,40,41,41,42,42,45,45,47,47,48,48,49,49,50,50,51,51,52,52,55,55,56,56,57,57,58,58,59,59,60,60,61,61,62,62],"right_children":[2,4,6,8,10,12,14,16,18,20,22,24,26,28,30,32,34,36,38,40,42,44,46,48,50,52,54,56,58,60,62,64,66,68,70,72,-1,74,76,78,80,82,84,-1,-1,86,-1,88,90,92,94,96,98,-1,-1,100,102,104,106,108,110,112,114,-1,-1,-1,-1,-1,-1,-1,-1,-1,-1,-1,-1,-1,-1,-1,-1,-1,-1,-1,-1,-1,-1,-1,-1,-1,-1,-1,-1,-1,-1,-1,-1,-1,-1,-1,-1,-1,-1,-1,-1,-1,-1,-1,-1,-1,-1,-1,-1,-1,-1,-1,-1],"split_conditions":[2.522E1,1.265E1,2.014E3,7.11E0,2.03E2,4.932E1,5.086E1,2.013E3,2.016E3,2.015E3,2.01E3,2.013E3,6.463E1,3.2572E4,3E4,7.1E1,5.61E0,1.408E2,2.018E3,1E0,1.65E2,2.008E3,1E0,2.01E3,3.0566E4,2.013E3,2.2434E2,1.995E3,3.34E1,1.815E1,1.856E1,2.46E0,1.6E1,2.96E0,1.388E3,2.012E3,-1.5182052E0,9.0246E4,1.007E1,2.359E3,2.011E3,1.006E2,1.731E1,-5.5416585E-3,-5.4938895E-1,6.0146E4,9.547289E-1,8.1245E4,1.17E1,1.213E2,1E0,5.638E4,2.25E1,8.6046714E-1,2.3082938E0,2.017E3,2.803E1,3.258E1,2.018E3,2.092E3,1E0,3.1271E4,5.541E4,-6.702372E-1,-4.8107937E-1,-5.514503E-1,-3.482505E-1,-6.2268305E-1,-3.5174698E-1,-2.3190168E-1,-4.4015864E-1,-3.4848255E-1,-2.1513298E-1,-6.657885E-2,-4.1504088E-1,3.5364848E-2,2.2606735E-1,-3.4609258E-1,2.2460231E-1,-2.2520392E-1,3.5161674E-1,-2.3164418E-1,4.3521887E-1,2.2744343E0,7.16832E-1,3.9265778E0,1.7956544E0,9.616977E-2,-3.4052676E-1,7.6492673E-1,2.8602067E-1,3.026849E-1,1.4339957E0,6.7142093E-1,3.0511123E-1,1.078115E0,-2.9500458E-2,1.5899146E0,1.2377973E-1,7.887074E-1,1.602565E0,4.621921E-1,1.7391541E0,8.0077183E-1,7.522478E-2,1.0573226E0,2.6117885E0,1.9194437E0,3.6503959E0,2.1320837E0,4.678133E-1,3.530593E-1,2.032894E0,1.4341604E0,-5.718432E-2],"split_indices":[9,9,0,9,6,9,9,0,0,0,0,0,9,1,1,6,9,6,0,3,6,0,4,0,1,0,6,7,9,5,5,9,5,9,7,0,0,1,9,7,0,6,9,0,0,1,0,1,5,6,4,1,5,0,0,0,9,9,0,7,4,1,1,0,0,0,0,0,0,0,0,0,0,0,0,0,0,0,0,0,0,0,0,0,0,0,0,0,0,0,0,0,0,0,0,0,0,0,0,0,0,0,0,0,0,0,0,0,0,0,0,0,0,0,0],"split_type":[0,0,0,0,0,0,0,0,0,0,0,0,0,0,0,0,0,0,0,0,0,0,0,0,0,0,0,0,0,0,0,0,0,0,0,0,0,0,0,0,0,0,0,0,0,0,0,0,0,0,0,0,0,0,0,0,0,0,0,0,0,0,0,0,0,0,0,0,0,0,0,0,0,0,0,0,0,0,0,0,0,0,0,0,0,0,0,0,0,0,0,0,0,0,0,0,0,0,0,0,0,0,0,0,0,0,0,0,0,0,0,0,0,0,0],"sum_hessian":[5.549E3,4.761E3,7.88E2,3.575E3,1.186E3,3.23E2,4.65E2,1.863E3,1.712E3,1.17E3,1.6E1,2.74E2,4.9E1,3.15E2,1.5E2,8.09E2,1.054E3,1.125E3,5.87E2,6.52E2,5.18E2,3E0,1.3E1,1.93E2,8.1E1,4.1E1,8E0,1.06E2,2.09E2,4.6E1,1.04E2,3.35E2,4.74E2,4.77E2,5.77E2,1.123E3,2E0,4.44E2,1.43E2,4.47E2,2.05E2,4.68E2,5E1,1E0,2E0,1.1E1,2E0,3.7E1,1.56E2,1E1,7.1E1,2.7E1,1.4E1,3E0,5E0,3.6E1,7E1,8.7E1,1.22E2,2.5E1,2.1E1,8.3E1,2.1E1,1.7E1,3.18E2,7.4E1,4E2,1.4E1,4.63E2,5.12E2,6.5E1,2.9E2,8.33E2,4.28E2,1.6E1,9.1E1,5.2E1,3.52E2,9.5E1,6.5E1,1.4E2,1.03E2,3.65E2,2.2E1,2.8E1,6E0,5E0,2.6E1,1.1E1,1.7E1,1.39E2,2E0,8E0,5.2E1,1.9E1,1.4E1,1.3E1,1.3E1,1E0,2.2E1,1.4E1,4E0,6.6E1,7.9E1,8E0,1.18E2,4E0,1E1,1.5E1,1.9E1,2E0,4E0,7.9E1,1.3E1,8E0],"tree_param":{"num_deleted":"0","num_feature":"10","num_nodes":"115","size_leaf_vector":"1"}},{"base_weights":[2.48227E-2,-3.961266E-1,2.5101728E0,-5.149859E-1,1.2665292E0,1.4963248E0,3.9845128E0,-9.188408E-1,-2.9868153E-1,2.2942875E-1,2.0546033E0,7.970445E-1,2.384944E0,3.8025813E0,3.5274463E0,-9.288787E-1,1.3650851E0,-4.4464713E-1,3.713051E-1,1.6008149E0,-1.6633421E-1,3.585029E0,1.5480827E0,5.1264596E-1,3.8165839E0,3.0535347E0,1.4595615E0,2.7548344E0,4.852771E0,-8.7145746E-1,-1.8355188E0,-8.825513E-1,-2.917876E-1,-4.767434E-2,1.2980403E0,2.9423182E0,4.6848935E-1,-6.679117E-1,8.9889634E-1,3.9428077E0,5.7922364E-3,1.6523666E0,-1.0982171E0,1.2216501E0,-5.6217156E-2,-9.541257E-1,5.556489E0,4.3155117E0,2.1347516E0,1.0407592E0,4.7059035E0,3.169311E0,1.3557465E0,4.4895196E0,3.3443844E0,-3.0989558E-1,-2.0680542E-1,-7.29668E-1,-4.3622336E-1,-4.2150882E-1,-2.2003655E-1,3.5996574E-1,-1.11318536E-1,-9.527156E-2,2.2142595E-2,9.0673786E-1,3.3005163E-1,1.1566725E0,4.4347954E-1,-1.3855845E-1,3.776869E-1,-4.21685E-2,-3.013908E-1,-2.5635096E-1,4.1032925E-1,1.4153093E0,7.8507483E-1,-4.3912908E-1,4.420252E-1,3.7664628E-1,8.6717623E-1,4.2218122E-1,-5.131985E-1,1.0436141E0,-7.297492E-2,1.3340063E-1,-6.343166E-1,1.8702039E0,8.050888E-1,6.7617977E-1,1.592771E0,7.1886003E-1,-5.543684E-1,1.17956E0,2.3964594E-1,4.8859558E-1,1.7376183E0,1.462142E0,8.394684E-1,5.68995E-1,-5.80599E-1,1.007581E0,1.810156E0],"categories":[],"categories_nodes":[],"categories_segments":[],"categories_sizes":[],"default_left":[0,0,0,0,0,0,0,0,0,0,0,0,0,0,0,0,0,0,0,0,0,0,0,0,0,0,0,0,0,0,0,0,0,0,0,0,0,0,0,0,0,0,0,0,0,0,0,0,0,0,0,0,0,0,0,0,0,0,0,0,0,0,0,0,0,0,0,0,0,0,0,0,0,0,0,0,0,0,0,0,0,0,0,0,0,0,0,0,0,0,0,0,0,0,0,0,0,0,0,0,0,0,0],"id":5,"left_children":[1,3,5,7,9,11,13,15,17,19,21,23,25,27,-1,29,-1,31,33,35,37,39,41,43,45,47,49,51,53,55,57,59,61,63,65,67,69,71,73,75,77,79,-1,81,83,85,87,89,91,93,95,97,99,101,-1,-1,-1,-1,-1,-1,-1,-1,-1,-1,-1,-1,-1,-1,-1,-1,-1,-1,-1,-1,-1,-1,-1,-1,-1,-1,-1,-1,-1,-1,-1,-1,-1,-1,-1,-1,-1,-1,-1,-1,-1,-1,-1,-1,-1,-1,-1,-1,-1],"loss_changes":[5.807439E3,9.3876483E2,1.1958223E3,3.867981E2,2.5861646E2,2.951255E2,4.1775488E2,8.9045166E1,2.8249924E2,7.5164925E1,1.3398474E2,2.2904791E2,1.2547058E2,3.398379E2,0E0,7.8729614E1,0E0,1.5845206E2,2.0080417E2,4.571112E1,5.8304314E1,5.632245E1,8.046658E1,9.9690285E1,1.96215E2,1.3108496E2,1.17464066E2,9.02251E1,3.1354126E2,4.20282E1,1.717575E1,4.67218E1,2.0844904E2,1.172874E1,5.160919E1,1.3019234E1,1.381887E1,1.2999077E1,2.99427E1,2.8751038E1,1.2940518E1,6.2713135E1,0E0,6.228006E1,9.208449E1,1.2300991E1,1.6359497E1,9.0465454E1,7.939838E1,5.351644E1,2.399054E1,6.542566E1,7.309667E1,2.4520459E2,0E0,0E0,0E0,0E0,0E0,0E0,0E0,0E0,0E0,0E0,0E0,0E0,0E0,0E0,0E0,0E0,0E0,0E0,0E0,0E0,0E0,0E0,0E0,0E0,0E0,0E0,0E0,0E0,0E0,0E0,0E0,0E0,0E0,0E0,0E0,0E0,0E0,0E0,0E0,0E0,0E0,0E0,0E0,0E0,0E0,0E0,0E0,0E0,0E0],"parents":[2147483647,0,0,1,1,2,2,3,3,4,4,5,5,6,6,7,7,8,8,9,9,10,10,11,11,12,12,13,13,15,15,17,17,18,18,19,19,20,20,21,21,22,22,23,23,24,24,25,25,26,26,27,27,28,28,29,29,30,30,31,31,32,32,33,33,34,34,35,35,36,36,37,37,38,38,39,39,40,40,41,41,43,43,44,44,45,45,46,46,47,47,48,48,49,49,50,50,51,51,52,52,53,53],"right_children":[2,4,6,8,10,12,14,16,18,20,22,24,26,28,-1,30,-1,32,34,36,38,40,42,44,46,48,50,52,54,56,58,60,62,64,66,68,70,72,74,76,78,80,-1,82,84,86,88,90,92,94,96,98,100,102,-1,-1,-1,-1,-1,-1,-1,-1,-1,-1,-1,-1,-1,-1,-1,-1,-1,-1,-1,-1,-1,-1,-1,-1,-1,-1,-1,-1,-1,-1,-1,-1,-1,-1,-1,-1,-1,-1,-1,-1,-1,-1,-1,-1,-1,-1,-1,-1,-1],"split_conditions":[1.65E2,1.895E1,2.015E3,8E1,2.014E3,3.922E1,2.987E3,4E0,2.017E3,1.263E2,2.3249E4,2.03E2,6.0805E4,4.293E1,3.5274463E0,1.538E1,1.3650851E0,2.012E3,1.204E1,5.1355E4,1.526E1,1E0,1.632E2,1.745E2,2.011E3,1.449E1,2.414E2,5.9451E4,6E0,2.014E3,6.704E1,2.008E3,1.3E1,7.64E0,1.368E1,1.163E2,2.2E1,6.0146E4,1.3901E2,1.6573E4,1.67E1,2.198E3,-1.0982171E0,1.721E1,1.86E4,2.2434E2,3.258E1,1.205E1,2.414E2,1.685E2,2.01E3,1.731E1,1.776E2,2.017E3,3.3443844E0,-3.0989558E-1,-2.0680542E-1,-7.29668E-1,-4.3622336E-1,-4.2150882E-1,-2.2003655E-1,3.5996574E-1,-1.11318536E-1,-9.527156E-2,2.2142595E-2,9.0673786E-1,3.3005163E-1,1.1566725E0,4.4347954E-1,-1.3855845E-1,3.776869E-1,-4.21685E-2,-3.013908E-1,-2.5635096E-1,4.1032925E-1,1.4153093E0,7.8507483E-1,-4.3912908E-1,4.420252E-1,3.7664628E-1,8.6717623E-1,4.2218122E-1,-5.131985E-1,1.0436141E0,-7.297492E-2,1.3340063E-1,-6.343166E-1,1.8702039E0,8.050888E-1,6.7617977E-1,1.592771E0,7.1886003E-1,-5.543684E-1,1.17956E0,2.3964594E-1,4.8859558E-1,1.7376183E0,1.462142E0,8.394684E-1,5.68995E-1,-5.80599E-1,1.007581E0,1.810156E0],"split_indices":[6,9,0,6,0,9,7,2,0,6,1,6,1,9,0,9,0,0,9,1,5,4,6,6,0,5,6,1,8,0,6,0,5,9,5,6,9,1,6,1,5,7,0,5,1,6,9,5,6,6,0,9,6,0,0,0,0,0,0,0,0,0,0,0,0,0,0,0,0,0,0,0,0,0,0,0,0,0,0,0,0,0,0,0,0,0,0,0,0,0,0,0,0,0,0,0,0,0,0,0,0,0,0],"split_type":[0,0,0,0,0,0,0,0,0,0,0,0,0,0,0,0,0,0,0,0,0,0,0,0,0,0,0,0,0,0,0,0,0,0,0,0,0,0,0,0,0,0,0,0,0,0,0,0,0,0,0,0,0,0,0,0,0,0,0,0,0,0,0,0,0,0,0,0,0,0,0,0,0,0,0,0,0,0,0,0,0,0,0,0,0,0,0,0,0,0,0,0,0,0,0,0,0,0,0,0,0,0,0],"sum_hessian":[5.549E3,4.746E3,8.03E2,4.43E3,3.16E2,4.77E2,3.26E2,1.544E3,2.886E3,1.37E2,1.79E2,2.68E2,2.09E2,3.2E2,6E0,1.542E3,2E0,2.37E3,5.16E2,3E1,1.07E2,4.3E1,1.36E2,2.46E2,2.2E1,1.2E2,8.9E1,1.62E2,1.58E2,1.452E3,9E1,6.12E2,1.758E3,3.56E2,1.6E2,1.3E1,1.7E1,7.3E1,3.4E1,3.9E1,4E0,1.34E2,2E0,1.09E2,1.37E2,6E0,1.6E1,4.9E1,7.1E1,8E1,9E0,1.24E2,3.8E1,1.51E2,7E0,7.67E2,6.85E2,3.3E1,5.7E1,1.34E2,4.78E2,8.8E1,1.67E3,1.1E2,2.46E2,1.5E1,1.45E2,7E0,6E0,8E0,9E0,2.9E1,4.4E1,7E0,2.7E1,2.3E1,1.6E1,2E0,2E0,1.03E2,3.1E1,1.03E2,6E0,6E0,1.31E2,3E0,3E0,1.2E1,4E0,1.7E1,3.2E1,6.7E1,4E0,5E0,7.5E1,3E0,6E0,2E1,1.04E2,3.3E1,5E0,8.9E1,6.2E1],"tree_param":{"num_deleted":"0","num_feature":"10","num_nodes":"103","size_leaf_vector":"1"}},{"base_weights":[2.1982066E-2,-2.2525391E-1,2.1994545E0,-4.0464243E-1,5.9163415E-1,1.5744139E0,3.4781897E0,-5.064581E-1,1.0547856E-1,1.4931487E0,1.5698199E-1,1.1655208E0,2.2273815E0,3.1678255E0,5.751138E0,-8.390166E-1,-4.0776244E-1,-9.1064215E-2,9.4720477E-1,5.45254E-1,2.2194357E0,-3.5708755E-2,1.5453587E0,2.4257982E0,8.8951486E-1,2.8241599E0,9.8836774E-1,2.6194408E0,4.160915E0,1.8324388E0,4.7194597E-1,-7.8363204E-1,-1.5139928E0,-7.4095744E-1,-3.3827433E-1,4.3720912E-2,-4.3743968E-1,-9.592421E-1,1.2451408E0,6.9856666E-2,2.4075875E0,4.225882E0,1.2052557E0,3.5934097E-1,-3.357771E-1,1.1594567E0,5.7256703E0,1.828067E0,7.647228E0,1.1351198E0,-3.1410637E-1,4.9030375E0,2.2282548E0,-3.8744366E-1,1.7313752E0,2.8951507E0,-3.9960164E-1,4.9835625E0,2.513349E0,-2.096169E-1,-3.2116106E-1,-4.0959197E-1,-7.206707E-1,-3.6891493E-1,-1.9809331E-1,-1.3501206E-1,-3.4242368E-3,-5.8982905E-2,6.42075E-2,-9.945056E-2,-2.6033923E-1,-4.0262276E-1,9.136222E-2,4.127842E-1,-3.8852903E-1,-3.3953077E-1,1.1191226E-1,1.0247687E0,4.6917045E-1,-1.3741976E-2,1.5528493E0,5.281982E-1,1.7591709E-1,-1.0990098E-1,3.4009328E-1,-3.2647026E-1,-1.01832915E-2,3.8194332E-1,-9.856948E-1,-1.9098587E-1,2.137636E0,-2.685181E-1,6.494564E-1,2.9138732E0,2.1752673E-1,4.007985E-1,-4.3705672E-2,-4.5465067E-1,1.6048903E-2,2.3159077E0,8.829913E-1,8.639904E-1,3.2685444E-1,-1.974362E-1,6.321099E-1,1.7020875E-1,8.1752133E-1,7.708804E-1,1.3000337E0,2.700192E-1,-3.2555455E-1,1.1472713E0,2.124041E0,3.9885518E-1,1.1832203E0],"categories":[],"categories_nodes":[],"categories_segments":[],"categories_sizes":[],"default_left":[0,0,0,0,0,0,0,0,0,0,0,0,0,0,0,0,0,0,0,0,0,0,0,0,0,0,0,0,0,0,0,0,0,0,0,0,0,0,0,0,0,0,0,0,0,0,0,0,0,0,0,0,0,0,0,0,0,0,0,0,0,0,0,0,0,0,0,0,0,0,0,0,0,0,0,0,0,0,0,0,0,0,0,0,0,0,0,0,0,0,0,0,0,0,0,0,0,0,0,0,0,0,0,0,0,0,0,0,0,0,0,0,0,0,0],"id":6,"left_children":[1,3,5,7,9,11,13,15,17,19,21,23,25,27,29,31,33,35,37,39,41,43,45,47,49,51,53,55,57,-1,-1,59,61,63,65,67,69,71,73,75,77,79,81,83,85,87,89,91,93,95,97,99,101,103,105,107,109,111,113,-1,-1,-1,-1,-1,-1,-1,-1,-1,-1,-1,-1,-1,-1,-1,-1,-1,-1,-1,-1,-1,-1,-1,-1,-1,-1,-1,-1,-1,-1,-1,-1,-1,-1,-1,-1,-1,-1,-1,-1,-1,-1,-1,-1,-1,-1,-1,-1,-1,-1,-1,-1,-1,-1,-1,-1],"loss_changes":[2.9883352E3,7.307429E2,4.4690576E2,2.123772E2,3.5164264E2,9.939551E1,1.1228833E2,1.11515564E2,1.1274763E2,1.9981537E2,1.6244426E2,8.028125E1,1.05163574E2,7.895886E1,2.1712463E1,2.793512E1,6.0641968E1,2.5836628E1,7.446631E1,1.131564E2,3.3066492E2,6.342204E1,1.1273743E2,1.1710283E2,5.829715E1,1.1047858E2,5.0760475E1,9.188623E1,6.473041E1,0E0,0E0,1.6840515E1,4.380249E0,1.7043762E1,7.956116E1,1.6372864E1,6.7789536E0,9.117453E0,3.899727E1,3.7946533E1,1.6775955E1,2.2349908E2,3.7120575E1,1.3021292E2,6.900639E1,3.905249E1,5.79711E1,3.7705185E1,5.015306E1,4.2131607E1,1.509671E1,9.319629E1,5.4748505E1,1.35402355E1,3.5467476E1,3.5688416E1,9.886982E0,6.2856567E1,3.03246E1,0E0,0E0,0E0,0E0,0E0,0E0,0E0,0E0,0E0,0E0,0E0,0E0,0E0,0E0,0E0,0E0,0E0,0E0,0E0,0E0,0E0,0E0,0E0,0E0,0E0,0E0,0E0,0E0,0E0,0E0,0E0,0E0,0E0,0E0,0E0,0E0,0E0,0E0,0E0,0E0,0E0,0E0,0E0,0E0,0E0,0E0,0E0,0E0,0E0,0E0,0E0,0E0,0E0,0E0,0E0,0E0],"parents":[2147483647,0,0,1,1,2,2,3,3,4,4,5,5,6,6,7,7,8,8,9,9,10,10,11,11,12,12,13,13,14,14,15,15,16,16,17,17,18,18,19,19,20,20,21,21,22,22,23,23,24,24,25,25,26,26,27,27,28,28,31,31,32,32,33,33,34,34,35,35,36,36,37,37,38,38,39,39,40,40,41,41,42,42,43,43,44,44,45,45,46,46,47,47,48,48,49,49,50,50,51,51,52,52,53,53,54,54,55,55,56,56,57,57,58,58],"right_children":[2,4,6,8,10,12,14,16,18,20,22,24,26,28,30,32,34,36,38,40,42,44,46,48,50,52,54,56,58,-1,-1,60,62,64,66,68,70,72,74,76,78,80,82,84,86,88,90,92,94,96,98,100,102,104,106,108,110,112,114,-1,-1,-1,-1,-1,-1,-1,-1,-1,-1,-1,-1,-1,-1,-1,-1,-1,-1,-1,-1,-1,-1,-1,-1,-1,-1,-1,-1,-1,-1,-1,-1,-1,-1,-1,-1,-1,-1,-1,-1,-1,-1,-1,-1,-1,-1,-1,-1,-1,-1,-1,-1,-1,-1,-1,-1],"split_conditions":[3.34E1,1.95E3,2.016E3,2.017E3,5.21E4,4.856E1,2.495E3,7.1E1,1.282E1,1E0,2.967E3,3.2572E4,1.71E1,5.515E1,7.3E4,1.394E1,2.011E3,3.746E4,1.242E3,2.2E1,1.731E1,1.3E1,2.03E2,2.04E2,2.198E3,1.7433E2,1.745E2,5.8815E4,1.833E1,1.8324388E0,4.7194597E-1,7.7E4,2.404E1,2.007E3,1.05E2,7.16E0,2.47E1,2.018E3,6.4E4,6E0,1.479E2,2.012E3,3.9E4,1.237E1,1.467E1,2.017E3,2.01E3,2.011E3,1.237E1,1.89E1,2.497E3,5.0318E4,5.8815E4,6.4284E4,5.675E1,4.03E4,1.969E3,1.647E1,2.018E3,-2.096169E-1,-3.2116106E-1,-4.0959197E-1,-7.206707E-1,-3.6891493E-1,-1.9809331E-1,-1.3501206E-1,-3.4242368E-3,-5.8982905E-2,6.42075E-2,-9.945056E-2,-2.6033923E-1,-4.0262276E-1,9.136222E-2,4.127842E-1,-3.8852903E-1,-3.3953077E-1,1.1191226E-1,1.0247687E0,4.6917045E-1,-1.3741976E-2,1.5528493E0,5.281982E-1,1.7591709E-1,-1.0990098E-1,3.4009328E-1,-3.2647026E-1,-1.01832915E-2,3.8194332E-1,-9.856948E-1,-1.9098587E-1,2.137636E0,-2.685181E-1,6.494564E-1,2.9138732E0,2.1752673E-1,4.007985E-1,-4.3705672E-2,-4.5465067E-1,1.6048903E-2,2.3159077E0,8.829913E-1,8.639904E-1,3.2685444E-1,-1.974362E-1,6.321099E-1,1.7020875E-1,8.1752133E-1,7.708804E-1,1.3000337E0,2.700192E-1,-3.2555455E-1,1.1472713E0,2.124041E0,3.9885518E-1,1.1832203E0],"split_indices":[9,7,0,0,1,9,7,6,9,3,7,1,5,9,1,9,0,1,7,9,9,5,6,6,7,6,6,1,5,0,0,1,5,0,6,9,5,0,1,8,6,0,1,5,5,0,0,0,5,5,7,1,1,1,9,1,7,5,0,0,0,0,0,0,0,0,0,0,0,0,0,0,0,0,0,0,0,0,0,0,0,0,0,0,0,0,0,0,0,0,0,0,0,0,0,0,0,0,0,0,0,0,0,0,0,0,0,0,0,0,0,0,0,0,0],"split_type":[0,0,0,0,0,0,0,0,0,0,0,0,0,0,0,0,0,0,0,0,0,0,0,0,0,0,0,0,0,0,0,0,0,0,0,0,0,0,0,0,0,0,0,0,0,0,0,0,0,0,0,0,0,0,0,0,0,0,0,0,0,0,0,0,0,0,0,0,0,0,0,0,0,0,0,0,0,0,0,0,0,0,0,0,0,0,0,0,0,0,0,0,0,0,0,0,0,0,0,0,0,0,0,0,0,0,0,0,0,0,0,0,0,0,0],"sum_hessian":[5.549E3,4.984E3,5.65E2,4.087E3,8.97E2,3.81E2,1.84E2,3.407E3,6.8E2,2.91E2,6.06E2,2.36E2,1.45E2,1.64E2,2E1,7.78E2,2.629E3,5.52E2,1.28E2,1.27E2,1.64E2,5.33E2,7.3E1,4.1E1,1.95E2,9.7E1,4.8E1,1.08E2,5.6E1,1.8E1,2E0,7.21E2,5.7E1,4.52E2,2.177E3,3.98E2,1.54E2,1.7E1,1.11E2,1.02E2,2.5E1,5.4E1,1.1E2,2.3E2,3.03E2,6.8E1,5E0,3.8E1,3E0,1.62E2,3.3E1,2E1,7.7E1,1.7E1,3.1E1,9.9E1,9E0,3.6E1,2E1,5.59E2,1.62E2,5.1E1,6E0,6.2E1,3.9E2,1.622E3,5.55E2,1.65E2,2.33E2,1.25E2,2.9E1,1.3E1,4E0,1.06E2,5E0,2E1,8.2E1,1E1,1.5E1,1E1,4.4E1,5.7E1,5.3E1,1.19E2,1.11E2,8.6E1,2.17E2,6.7E1,1E0,1E0,4E0,4E0,3.4E1,2E0,1E0,1.4E2,2.2E1,7E0,2.6E1,7E0,1.3E1,4.8E1,2.9E1,1.6E1,1E0,1.5E1,1.6E1,8.3E1,1.6E1,3E0,6E0,2.5E1,1.1E1,1.2E1,8E0],"tree_param":{"num_deleted":"0","num_feature":"10","num_nodes":"115","size_leaf_vector":"1"}},{"base_weights":[1.9018836E-2,-2.1934147E-1,1.2282724E0,-3.1834254E-1,4.131642E-1,4.9074244E-1,1.7738122E0,-4.1548872E-1,-5.8044415E-2,-3.455325E-2,1.3173752E0,4.060427E-1,2.5811667E0,1.507562E0,2.7998402E0,-4.4683886E-1,1.504936E-1,-2.1811248E-1,2.7722E-1,3.7648328E-2,-3.0058029E0,2.0857098E0,-2.2713749E-1,7.5195324E-1,1.2303825E-1,1.428345E0,4.072342E0,1.2398438E0,2.1344736E0,2.2084718E0,5.8007045E0,-8.12747E-1,-4.1224083E-1,6.4929754E-1,-5.244161E-1,-1.3045107E-1,-5.1075304E-1,3.4801522E-1,-1.2356547E0,1.4380547E-1,-3.6643347E-1,-4.3873373E-1,-1.0374963E0,2.9357743E0,5.138797E-1,-3.2947713E-1,1.0251449E0,9.996502E-1,6.198936E-1,5.335908E-1,-5.14318E-1,2.2602081E-1,1.7006733E0,1.6903139E0,1.4522333E0,1.3986453E0,3.230036E-1,2.2594087E0,-2.1784325E0,3.1640196E0,9.659984E-1,-2.0330144E-1,6.247957E0,-2.6289284E-1,1.9533396E-2,-2.2768296E-1,-1.0931228E-1,8.5087925E-2,3.8753578E-1,3.0082503E-1,-2.4450918E-1,-5.1477175E-2,1.4536548E-1,-1.2990159E-1,-3.0423036E-1,5.196787E-2,2.9740727E-1,-9.2886263E-1,-3.254247E-2,-9.3936216E-4,1.3010998E-1,-8.6163E-2,-4.1246346E-1,1.563508E0,4.9548557E-1,3.2842952E-1,-1.4744996E-1,-4.7986712E-2,-7.4020815E-1,1.5915136E-1,9.961829E-1,-5.8137083E-1,1.8270397E-1,-8.491535E-1,-1.171596E-1,2.8195381E-3,9.8889835E-2,7.227339E-1,2.3813611E-1,1.1919134E0,-4.3127206E-1,5.10572E-1,2.85215E-1,-9.4966166E-2,8.749218E-1,7.0093435E-1,1.4450455E-3,5.7104874E-2,-9.094429E-1,7.7737087E-1,1.4428889E0,7.4230725E-1,-2.9497651E-2,2.2170668E0,9.3374354E-1],"categories":[],"categories_nodes":[],"categories_segments":[],"categories_sizes":[],"default_left":[0,0,0,0,0,0,0,0,0,0,0,0,0,0,0,0,0,0,0,0,0,0,0,0,0,0,0,0,0,0,0,0,0,0,0,0,0,0,0,0,0,0,0,0,0,0,0,0,0,0,0,0,0,0,0,0,0,0,0,0,0,0,0,0,0,0,0,0,0,0,0,0,0,0,0,0,0,0,0,0,0,0,0,0,0,0,0,0,0,0,0,0,0,0,0,0,0,0,0,0,0,0,0,0,0,0,0,0,0,0,0,0,0,0,0],"id":7,"left_children":[1,3,5,7,9,11,13,15,17,19,21,23,25,27,29,31,33,35,37,39,41,43,45,47,49,51,53,55,57,59,61,63,65,67,69,71,73,75,77,79,81,-1,-1,83,85,87,-1,-1,89,91,93,95,97,99,-1,101,103,105,107,109,111,-1,113,-1,-1,-1,-1,-1,-1,-1,-1,-1,-1,-1,-1,-1,-1,-1,-1,-1,-1,-1,-1,-1,-1,-1,-1,-1,-1,-1,-1,-1,-1,-1,-1,-1,-1,-1,-1,-1,-1,-1,-1,-1,-1,-1,-1,-1,-1,-1,-1,-1,-1,-1,-1],"loss_changes":[1.5999906E3,2.9049457E2,3.6687915E2,1.0137665E2,2.5427943E2,6.8004715E1,1.3919861E2,5.187863E1,5.860912E1,9.042984E1,2.4730786E2,3.6715706E1,1.9969185E1,6.76767E1,1.7707324E2,3.4694336E1,5.218423E1,1.8891148E1,3.823783E1,1.7725916E1,1.9263687E0,1.8421716E2,2.723273E1,5.5519844E1,5.4701424E1,2.889883E0,2.8001785E0,4.264453E1,7.1737366E1,1.04982635E2,5.349109E1,1.3337158E1,4.170999E1,2.0543224E1,3.010917E1,1.4504664E1,6.2136993E0,3.7836082E1,3.3218998E1,1.3930293E1,6.475876E0,0E0,0E0,2.5442944E2,2.9738594E1,2.4612114E1,0E0,0E0,3.7347553E1,2.4853779E1,2.2405003E1,6.4235955E-2,3.2274704E0,2.7131916E1,0E0,3.2613495E1,7.556154E1,2.1005371E1,8.659742E0,3.560858E1,6.606397E1,0E0,3.4302856E1,0E0,0E0,0E0,0E0,0E0,0E0,0E0,0E0,0E0,0E0,0E0,0E0,0E0,0E0,0E0,0E0,0E0,0E0,0E0,0E0,0E0,0E0,0E0,0E0,0E0,0E0,0E0,0E0,0E0,0E0,0E0,0E0,0E0,0E0,0E0,0E0,0E0,0E0,0E0,0E0,0E0,0E0,0E0,0E0,0E0,0E0,0E0,0E0,0E0,0E0,0E0,0E0],"parents":[2147483647,0,0,1,1,2,2,3,3,4,4,5,5,6,6,7,7,8,8,9,9,10,10,11,11,12,12,13,13,14,14,15,15,16,16,17,17,18,18,19,19,20,20,21,21,22,22,23,23,24,24,25,25,26,26,27,27,28,28,29,29,30,30,31,31,32,32,33,33,34,34,35,35,36,36,37,37,38,38,39,39,40,40,43,43,44,44,45,45,48,48,49,49,50,50,51,51,52,52,53,53,55,55,56,56,57,57,58,58,59,59,60,60,62,62],"right_children":[2,4,6,8,10,12,14,16,18,20,22,24,26,28,30,32,34,36,38,40,42,44,46,48,50,52,54,56,58,60,62,64,66,68,70,72,74,76,78,80,82,-1,-1,84,86,88,-1,-1,90,92,94,96,98,100,-1,102,104,106,108,110,112,-1,114,-1,-1,-1,-1,-1,-1,-1,-1,-1,-1,-1,-1,-1,-1,-1,-1,-1,-1,-1,-1,-1,-1,-1,-1,-1,-1,-1,-1,-1,-1,-1,-1,-1,-1,-1,-1,-1,-1,-1,-1,-1,-1,-1,-1,-1,-1,-1,-1,-1,-1,-1,-1],"split_conditions":[2.2E1,1E0,2.014E3,2.016E3,1.7237072E1,6.349E1,5.515E1,2.494E3,1.063E1,1.475E2,2E0,6.1591E4,2.2434E2,2.017E3,2.477E3,1.5E1,2.495E3,4.9E4,1.479E2,6.1E4,2.012E3,1.731E1,3E0,5E0,1E0,2.012E3,5.1355E4,2E0,7.4E4,1.8908E2,1.2E4,1.797E1,6.704E1,2.014E3,1.08E1,2.63E1,1E5,2.018E3,1.7237072E1,1.0845E2,1.15E5,-4.3873373E-1,-1.0374963E0,1.6762E2,5.8815E4,1.81E2,1.0251449E0,9.996502E-1,5.675E1,1.797E3,6.2162E4,2.011E3,6.3141E4,8.243E3,1.4522333E0,1.71E1,1.56E1,1E0,2.019E3,2.018E3,3.4697E4,-2.0330144E-1,4.7E4,-2.6289284E-1,1.9533396E-2,-2.2768296E-1,-1.0931228E-1,8.5087925E-2,3.8753578E-1,3.0082503E-1,-2.4450918E-1,-5.1477175E-2,1.4536548E-1,-1.2990159E-1,-3.0423036E-1,5.196787E-2,2.9740727E-1,-9.2886263E-1,-3.254247E-2,-9.3936216E-4,1.3010998E-1,-8.6163E-2,-4.1246346E-1,1.563508E0,4.9548557E-1,3.2842952E-1,-1.4744996E-1,-4.7986712E-2,-7.4020815E-1,1.5915136E-1,9.961829E-1,-5.8137083E-1,1.8270397E-1,-8.491535E-1,-1.171596E-1,2.8195381E-3,9.8889835E-2,7.227339E-1,2.3813611E-1,1.1919134E0,-4.3127206E-1,5.10572E-1,2.85215E-1,-9.4966166E-2,8.749218E-1,7.0093435E-1,1.4450455E-3,5.7104874E-2,-9.094429E-1,7.7737087E-1,1.4428889E0,7.4230725E-1,-2.9497651E-2,2.2170668E0,9.3374354E-1],"split_indices":[9,3,0,0,9,9,9,7,9,6,2,1,6,0,7,5,7,1,6,1,0,9,2,8,4,0,1,2,1,6,1,9,6,0,5,5,1,0,9,6,1,0,0,6,1,6,0,0,9,7,1,0,1,1,0,5,5,4,0,0,1,0,1,0,0,0,0,0,0,0,0,0,0,0,0,0,0,0,0,0,0,0,0,0,0,0,0,0,0,0,0,0,0,0,0,0,0,0,0,0,0,0,0,0,0,0,0,0,0,0,0,0,0,0,0],"split_type":[0,0,0,0,0,0,0,0,0,0,0,0,0,0,0,0,0,0,0,0,0,0,0,0,0,0,0,0,0,0,0,0,0,0,0,0,0,0,0,0,0,0,0,0,0,0,0,0,0,0,0,0,0,0,0,0,0,0,0,0,0,0,0,0,0,0,0,0,0,0,0,0,0,0,0,0,0,0,0,0,0,0,0,0,0,0,0,0,0,0,0,0,0,0,0,0,0,0,0,0,0,0,0,0,0,0,0,0,0,0,0,0,0,0,0],"sum_hessian":[5.549E3,4.636E3,9.13E2,4.009E3,6.27E2,3.89E2,5.24E2,2.919E3,1.09E3,4.2E2,2.07E2,3.75E2,1.4E1,4.18E2,1.06E2,2.766E3,1.53E2,7.38E2,3.52E2,4.11E2,9E0,1.38E2,6.9E1,1.68E2,2.07E2,9E0,5E0,2.95E2,1.23E2,9E1,1.6E1,2.37E2,2.529E3,8.8E1,6.5E1,5.69E2,1.69E2,3.37E2,1.5E1,3.26E2,8.5E1,3E0,6E0,8.9E1,4.9E1,6.8E1,1E0,7E0,1.61E2,1.26E2,8.1E1,2E0,7E0,2E0,3E0,2.51E2,4.4E1,1.2E2,3E0,5E1,4E1,1E0,1.5E1,2.21E2,1.6E1,3.05E2,2.224E3,5.7E1,3.1E1,1E1,5.5E1,5.34E2,3.5E1,1.48E2,2.1E1,2.66E2,7.1E1,5E0,1E1,2.17E2,1.09E2,8E1,5E0,3.1E1,5.8E1,3.1E1,1.8E1,6.4E1,4E0,1.57E2,4E0,3E0,1.23E2,3E0,7.8E1,1E0,1E0,3E0,4E0,1E0,1E0,1.48E2,1.03E2,3.6E1,8E0,1.16E2,4E0,1E0,2E0,3.9E1,1.1E1,1.6E1,2.4E1,1E1,5E0],"tree_param":{"num_deleted":"0","num_feature":"10","num_nodes":"115","size_leaf_vector":"1"}},{"base_weights":[1.5294997E-2,-1.3054791E-1,1.0326111E0,-1.3834494E-1,5.289225E0,7.181507E-1,1.7619128E0,-2.6677808E-1,5.7215195E-2,-4.1412988E-1,2.2960181E0,3.073063E0,6.5740204E-1,4.8367053E-1,2.0074933E0,-2.6374334E-1,-9.410225E-1,-8.552545E-1,1.1465405E-1,-1.6742921E-1,-1.8929243E-2,3.5805643E0,3.4887588E-1,2.5140235E-1,9.229664E-1,2.0887206E0,-1.522591E-1,2.1165698E0,-5.340493E-1,-2.2156319E-1,-4.6787396E-1,-1.4936674E0,-6.8635505E-1,9.177365E-2,3.0433269E0,4.549002E-1,3.953725E0,6.800687E-1,-5.981123E-2,7.5160563E-1,2.5516174E0,2.6509426E0,-4.4569162E-1,2.3727284E-1,-2.354003E0,1.4646469E0,2.5786507E0,5.005248E-1,-7.275544E-1,-7.319759E-2,3.5390776E-2,-1.3185205E-1,-2.8456396E-1,-2.782154E-1,-6.4112896E-1,7.1257375E-2,-2.4442579E-1,1.8055916E-2,4.7780302E-1,1.1164814E0,1.2516947E-1,1.4389833E0,6.3672245E-1,1.285269E-1,7.853014E-1,-3.0350256E-1,5.2059356E-2,2.7162644E-1,-1.8620875E-1,1.3968177E0,3.1194746E-1,1.0064176E0,4.250914E-1,3.6629173E-1,-2.2985983E-1,-8.384964E-1,-1.5465719E-1,1.0735503E0,3.197955E-1,6.965795E-1,1.0044862E0,-2.4812308E-1,2.7943817E-1],"categories":[],"categories_nodes":[],"categories_segments":[],"categories_sizes":[],"default_left":[0,0,0,0,0,0,0,0,0,0,0,0,0,0,0,0,0,0,0,0,0,0,0,0,0,0,0,0,0,0,0,0,0,0,0,0,0,0,0,0,0,0,0,0,0,0,0,0,0,0,0,0,0,0,0,0,0,0,0,0,0,0,0,0,0,0,0,0,0,0,0,0,0,0,0,0,0,0,0,0,0,0,0],"id":8,"left_children":[1,3,5,7,9,11,13,15,17,19,-1,21,23,25,27,29,-1,31,33,-1,-1,35,-1,37,39,41,43,45,47,49,51,53,55,57,59,-1,61,63,65,67,69,71,-1,73,75,77,79,81,-1,-1,-1,-1,-1,-1,-1,-1,-1,-1,-1,-1,-1,-1,-1,-1,-1,-1,-1,-1,-1,-1,-1,-1,-1,-1,-1,-1,-1,-1,-1,-1,-1,-1,-1],"loss_changes":[8.2357904E2,2.0589532E2,1.583529E2,1.2180471E2,9.755531E1,6.7791916E1,6.4636475E1,2.4665833E1,1.0088483E2,1.163972E-1,0E0,7.4689026E0,5.1197662E1,3.6042484E1,4.9644287E1,2.508136E1,0E0,1.12671585E1,1.2100735E2,0E0,0E0,9.3743134E-1,0E0,2.5387966E1,7.845923E1,2.4034172E1,2.285743E1,4.6831726E1,1.6865992E1,1.8503464E1,6.400757E0,6.3984337E0,1.1106918E1,8.509889E1,2.3384338E1,0E0,6.247711E-1,3.788568E1,2.482979E1,5.5865387E1,8.1058426E1,3.0624886E0,0E0,2.3639158E1,1.8020859E0,5.6860718E1,1.1390808E1,4.203056E0,0E0,0E0,0E0,0E0,0E0,0E0,0E0,0E0,0E0,0E0,0E0,0E0,0E0,0E0,0E0,0E0,0E0,0E0,0E0,0E0,0E0,0E0,0E0,0E0,0E0,0E0,0E0,0E0,0E0,0E0,0E0,0E0,0E0,0E0,0E0],"parents":[2147483647,0,0,1,1,2,2,3,3,4,4,5,5,6,6,7,7,8,8,9,9,11,11,12,12,13,13,14,14,15,15,17,17,18,18,21,21,23,23,24,24,25,25,26,26,27,27,28,28,29,29,30,30,31,31,32,32,33,33,34,34,36,36,37,37,38,38,39,39,40,40,41,41,43,43,44,44,45,45,46,46,47,47],"right_children":[2,4,6,8,10,12,14,16,18,20,-1,22,24,26,28,30,-1,32,34,-1,-1,36,-1,38,40,42,44,46,48,50,52,54,56,58,60,-1,62,64,66,68,70,72,-1,74,76,78,80,82,-1,-1,-1,-1,-1,-1,-1,-1,-1,-1,-1,-1,-1,-1,-1,-1,-1,-1,-1,-1,-1,-1,-1,-1,-1,-1,-1,-1,-1,-1,-1,-1,-1,-1,-1],"split_conditions":[2.803E1,2.987E3,2.016E3,9.77E0,2.007E3,5E0,1.478E2,1.408E2,2.009E3,2.006E3,2.2960181E0,1.985E3,2.013E3,1.6573E4,7.518E4,1E0,-9.410225E-1,2.007E3,1.985E2,-1.6742921E-1,-1.8929243E-2,1E1,3.4887588E-1,1.29E1,2.771E3,1E0,2E0,1.997E3,2.017E3,2.018E3,9.1E0,1.948E3,1.08E1,2.019E3,1E0,4.549002E-1,2.0488E4,2.414E2,4.9389E4,1.943E2,1.237E1,2.018E3,-4.4569162E-1,3.717E1,4.1871E4,1.745E2,4.3983E4,1.969E3,-7.275544E-1,-7.319759E-2,3.5390776E-2,-1.3185205E-1,-2.8456396E-1,-2.782154E-1,-6.4112896E-1,7.1257375E-2,-2.4442579E-1,1.8055916E-2,4.7780302E-1,1.1164814E0,1.2516947E-1,1.4389833E0,6.3672245E-1,1.285269E-1,7.853014E-1,-3.0350256E-1,5.2059356E-2,2.7162644E-1,-1.8620875E-1,1.3968177E0,3.1194746E-1,1.0064176E0,4.250914E-1,3.6629173E-1,-2.2985983E-1,-8.384964E-1,-1.5465719E-1,1.0735503E0,3.197955E-1,6.965795E-1,1.0044862E0,-2.4812308E-1,2.7943817E-1],"split_indices":[9,7,0,9,0,8,6,6,0,0,0,7,0,1,1,4,0,0,6,0,0,5,0,5,7,4,2,7,0,0,9,7,5,0,4,0,1,6,1,6,5,0,0,9,1,6,1,7,0,0,0,0,0,0,0,0,0,0,0,0,0,0,0,0,0,0,0,0,0,0,0,0,0,0,0,0,0,0,0,0,0,0,0],"split_type":[0,0,0,0,0,0,0,0,0,0,0,0,0,0,0,0,0,0,0,0,0,0,0,0,0,0,0,0,0,0,0,0,0,0,0,0,0,0,0,0,0,0,0,0,0,0,0,0,0,0,0,0,0,0,0,0,0,0,0,0,0,0,0,0,0,0,0,0,0,0,0,0,0,0,0,0,0,0,0,0,0,0,0],"sum_hessian":[5.549E3,4.854E3,6.95E2,4.848E3,6E0,4.87E2,2.08E2,2.926E3,1.922E3,2E0,4E0,1.1E1,4.76E2,3.4E1,1.74E2,2.924E3,2E0,1.13E2,1.809E3,1E0,1E0,8E0,3E0,1.89E2,2.87E2,9E0,2.5E1,1.67E2,7E0,2.425E3,4.99E2,2.2E1,9.1E1,1.796E3,1.3E1,2E0,6E0,7.9E1,1.1E2,2.61E2,2.6E1,8E0,1E0,2.2E1,3E0,7.1E1,9.6E1,5E0,2E0,2.275E3,1.5E2,4.73E2,2.6E1,1.3E1,9E0,1.1E1,8E1,1.76E3,3.6E1,1E1,3E0,3E0,3E0,7.1E1,8E0,2.1E1,8.9E1,2.35E2,2.6E1,1E1,1.6E1,4E0,4E0,1.1E1,1.1E1,2E0,1E0,1E1,6.1E1,7.5E1,2.1E1,1E0,4E0],"tree_param":{"num_deleted":"0","num_feature":"10","num_nodes":"83","size_leaf_vector":"1"}},{"base_weights":[1.2368263E-2,-1.5492554E-1,4.926585E-1,-1.8290742E-1,3.8830218E-1,7.7265644E-1,4.5188606E-2,-1.466165E-1,-6.395631E-1,3.1159735E-1,5.995718E-1,1.7458069E0,6.081554E-1,1.6069632E0,-2.8704686E-2,-1.7429133E-1,5.392281E-1,-7.623299E-1,-2.0665038E-1,1.7408136E0,2.5672442E-1,1.2116646E0,3.1712062E0,1.3728951E-1,8.086807E-1,-1.2003784E0,2.9986756E0,-4.8177935E-2,1.0204992E0,-2.7884603E-1,-8.978846E-2,7.708225E-1,-1.4575535E0,-8.1928897E-1,4.1508558E-1,-3.1860352E-1,1.0437527E0,2.0133592E-1,6.103402E-1,-1.3471588E-2,4.3223298E-1,2.8003147E-1,1.6026601E0,2.6039155E0,1.9221622E0,-5.9884506E-1,2.042433E-1,7.35313E-1,4.203457E0,-2.1731317E-1,-7.124646E-1,3.6903725E0,1.7592199E0,2.2181255E-1,-3.1798592E-1,-2.6343197E-1,-8.0671325E-2,2.5223738E-2,-6.5620914E-2,4.3051782E-1,1.2771852E-1,-8.875021E-2,-6.5974885E-1,-4.5379642E-1,-2.2080223E-1,2.2448057E-1,-4.3751165E-1,1.875128E-1,-2.483329E-1,9.690339E-2,-9.9706054E-2,4.6509705E-2,2.9476634E-1,8.6148536E-1,-7.4846126E-2,2.7318913E-1,6.928453E-1,6.5540195E-1,-8.1422085E-1,-3.271911E-1,9.732987E-2,-5.716598E-2,2.4638928E-1,1.5829856E0,5.581017E-1,4.9245752E-2,-9.793105E-2,3.6392003E-1,1.2474198E0,7.068014E-2,5.829668E-1,5.7941932E-2,7.955895E-1,-8.300409E-2,-4.8155442E-1],"categories":[],"categories_nodes":[],"categories_segments":[],"categories_sizes":[],"default_left":[0,0,0,0,0,0,0,0,0,0,0,0,0,0,0,0,0,0,0,0,0,0,0,0,0,0,0,0,0,0,0,0,0,0,0,0,0,0,0,0,0,0,0,0,0,0,0,0,0,0,0,0,0,0,0,0,0,0,0,0,0,0,0,0,0,0,0,0,0,0,0,0,0,0,0,0,0,0,0,0,0,0,0,0,0,0,0,0,0,0,0,0,0,0,0],"id":9,"left_children":[1,3,5,7,9,11,13,15,17,19,-1,21,23,25,27,29,31,33,35,37,39,41,43,45,47,49,51,53,-1,55,57,59,61,63,65,67,-1,-1,-1,69,71,73,75,-1,77,-1,79,81,83,85,-1,87,89,91,93,-1,-1,-1,-1,-1,-1,-1,-1,-1,-1,-1,-1,-1,-1,-1,-1,-1,-1,-1,-1,-1,-1,-1,-1,-1,-1,-1,-1,-1,-1,-1,-1,-1,-1,-1,-1,-1,-1,-1,-1],"loss_changes":[4.460165E2,6.2651634E1,1.7963187E2,6.480397E1,2.4327383E1,1.4013257E2,6.3864902E1,6.8974686E1,1.5148888E1,1.4767597E1,0E0,9.2851074E1,7.1270874E1,1.0127484E2,3.550131E1,3.0800873E1,6.632805E1,1.5362518E1,2.7930065E1,8.3346367E-1,8.921106E0,3.3792053E1,2.172489E2,3.283281E1,1.2891464E2,9.875429E0,8.082413E0,3.8460155E1,0E0,9.051788E0,4.3311146E1,2.8500526E1,1.2272539E1,1.1244019E1,7.9575E0,3.1268047E1,0E0,0E0,0E0,8.154727E0,1.7238308E1,4.051293E1,3.0180359E1,0E0,4.122412E1,0E0,3.4748314E1,4.1553833E1,1.7843689E1,3.033469E-1,0E0,6.5421753E0,1.784977E0,1.7883118E1,1.3592344E1,0E0,0E0,0E0,0E0,0E0,0E0,0E0,0E0,0E0,0E0,0E0,0E0,0E0,0E0,0E0,0E0,0E0,0E0,0E0,0E0,0E0,0E0,0E0,0E0,0E0,0E0,0E0,0E0,0E0,0E0,0E0,0E0,0E0,0E0,0E0,0E0,0E0,0E0,0E0,0E0],"parents":[2147483647,0,0,1,1,2,2,3,3,4,4,5,5,6,6,7,7,8,8,9,9,11,11,12,12,13,13,14,14,15,15,16,16,17,17,18,18,19,19,20,20,21,21,22,22,23,23,24,24,25,25,26,26,27,27,29,29,30,30,31,31,32,32,33,33,34,34,35,35,39,39,40,40,41,41,42,42,44,44,46,46,47,47,48,48,49,49,51,51,52,52,53,53,54,54],"right_children":[2,4,6,8,10,12,14,16,18,20,-1,22,24,26,28,30,32,34,36,38,40,42,44,46,48,50,52,54,-1,56,58,60,62,64,66,68,-1,-1,-1,70,72,74,76,-1,78,-1,80,82,84,86,-1,88,90,92,94,-1,-1,-1,-1,-1,-1,-1,-1,-1,-1,-1,-1,-1,-1,-1,-1,-1,-1,-1,-1,-1,-1,-1,-1,-1,-1,-1,-1,-1,-1,-1,-1,-1,-1,-1,-1,-1,-1,-1,-1],"split_conditions":[1E0,1.797E1,2E0,1.7237072E1,8E0,2.5093E4,5E0,1.472E1,1.781E3,1.02E2,5.995718E-1,2.147E3,2.013E3,1.731E1,3E0,6.75E0,1.479E2,1.2324E2,2.017E3,2.013E3,2.133E1,2.016E3,1.731E1,5E0,2.987E3,4.15E0,1.985E3,4.03E4,1.0204992E0,5E0,1.399E3,4.6601E4,2.012E3,1.573E1,1.731E1,7E0,1.0437527E0,2.0133592E-1,6.103402E-1,1.981E1,2.016E3,1.3414E4,1.685E2,2.6039155E0,6.349E1,-5.9884506E-1,4.2876E4,1.205E1,2.2434E2,6E3,-7.124646E-1,1E1,2.013E3,1.943E2,4.72E1,-2.6343197E-1,-8.0671325E-2,2.5223738E-2,-6.5620914E-2,4.3051782E-1,1.2771852E-1,-8.875021E-2,-6.5974885E-1,-4.5379642E-1,-2.2080223E-1,2.2448057E-1,-4.3751165E-1,1.875128E-1,-2.483329E-1,9.690339E-2,-9.9706054E-2,4.6509705E-2,2.9476634E-1,8.6148536E-1,-7.4846126E-2,2.7318913E-1,6.928453E-1,6.5540195E-1,-8.1422085E-1,-3.271911E-1,9.732987E-2,-5.716598E-2,2.4638928E-1,1.5829856E0,5.581017E-1,4.9245752E-2,-9.793105E-2,3.6392003E-1,1.2474198E0,7.068014E-2,5.829668E-1,5.7941932E-2,7.955895E-1,-8.300409E-2,-4.8155442E-1],"split_indices":[3,9,2,9,8,1,8,9,7,6,0,7,0,9,2,9,6,6,0,0,9,0,9,8,7,9,7,1,0,8,7,1,0,5,9,8,0,0,0,9,0,1,6,0,9,0,1,5,6,1,0,5,0,6,9,0,0,0,0,0,0,0,0,0,0,0,0,0,0,0,0,0,0,0,0,0,0,0,0,0,0,0,0,0,0,0,0,0,0,0,0,0,0,0,0],"split_type":[0,0,0,0,0,0,0,0,0,0,0,0,0,0,0,0,0,0,0,0,0,0,0,0,0,0,0,0,0,0,0,0,0,0,0,0,0,0,0,0,0,0,0,0,0,0,0,0,0,0,0,0,0,0,0,0,0,0,0,0,0,0,0,0,0,0,0,0,0,0,0,0,0,0,0,0,0,0,0,0,0,0,0,0,0,0,0,0,0,0,0,0,0,0,0],"sum_hessian":[5.549E3,4.116E3,1.433E3,3.915E3,2.01E2,8.81E2,5.52E2,3.628E3,2.87E2,1.93E2,8E0,1.26E2,7.55E2,2.4E1,5.28E2,3.488E3,1.4E2,2.23E2,6.4E1,6E0,1.87E2,9.3E1,3.3E1,2.26E2,5.29E2,8E0,1.6E1,5.26E2,2E0,1.558E3,1.93E3,1.26E2,1.4E1,2.13E2,1E1,6.3E1,1E0,2E0,4E0,7.4E1,1.13E2,2.8E1,6.5E1,5E0,2.8E1,6E0,2.2E2,5.19E2,1E1,5E0,3E0,9E0,7E0,2.63E2,2.63E2,2.4E1,1.534E3,8.22E2,1.108E3,4.2E1,8.4E1,6E0,8E0,2.1E1,1.92E2,9E0,1E0,2.2E1,4.1E1,3.6E1,3.8E1,7.6E1,3.7E1,4E0,2.4E1,3.4E1,3.1E1,2.7E1,1E0,1.8E1,2.02E2,4.4E1,4.75E2,6E0,4E0,1E0,4E0,2E0,7E0,1E0,6E0,2.61E2,2E0,2.56E2,7E0],"tree_param":{"num_deleted":"0","num_feature":"10","num_nodes":"95","size_leaf_vector":"1"}},{"base_weights":[1.04204845E-2,-5.3198062E-2,6.825022E-1,-1.11457E-1,1.9354045E-1,5.825394E-1,2.063777E0,-1.4814803E-1,1.07694834E-1,1.7348012E-1,2.9256194E0,2.921094E0,5.3349286E-1,3.187484E0,3.9133295E-1,-1.7172775E-1,2.1819924E-1,1.4059004E-1,-1.160468E0,1.5931422E-1,3.5299292E0,-4.1689715E-1,1.3038017E0,5.954636E-1,1.3987516E0,-3.720214E-1,6.347892E-1,1.4048398E0,4.65138E0,-1.2851347E0,7.7783877E-1,-1.6951905E-1,-7.6343435E-1,1.0442347E-1,6.7894286E-1,3.5506737E-1,-2.5485024E-2,-1.5016369E0,-3.984418E-1,-6.4179754E-1,2.0496713E-1,1.5530931E0,-2.1168195E-1,-1.5691438E-1,-3.0689336E-2,-2.9018974E-1,6.2071157E-1,4.0810627E-1,-1.1359742E0,9.4287443E-1,2.1785851E-1,-2.3841248E-1,1.7375349E0,1.7710065E0,2.2187347E0,-5.62454E-1,-1.5856648E-2,1.0976365E0,1.1059475E-1,-9.073277E-2,-4.0647265E-2,7.4362964E-3,1.2807664E-1,-5.353718E-1,2.3476645E-1,4.4338364E-2,2.8377384E-1,-3.221107E-1,3.3872977E-2,7.976146E-2,-5.1827043E-1,-3.210227E-1,6.146822E-2,-1.0664817E-1,-5.4261714E-1,-4.773949E-3,1.1311026E-1,-2.6723672E-2,-9.826012E-2,-3.1228542E-2,5.6300783E-1,-4.9679255E-1,8.675014E-2,4.0249538E-1,3.8300276E-2,-6.374572E-2,2.046848E-1,3.1208628E-1,8.355801E-1,8.752033E-1,2.3416406E-1,4.6213087E-1,-4.61525E-2,-4.2400348E-1,2.5347477E-1],"categories":[],"categories_nodes":[],"categories_segments":[],"categories_sizes":[],"default_left":[0,0,0,0,0,0,0,0,0,0,0,0,0,0,0,0,0,0,0,0,0,0,0,0,0,0,0,0,0,0,0,0,0,0,0,0,0,0,0,0,0,0,0,0,0,0,0,0,0,0,0,0,0,0,0,0,0,0,0,0,0,0,0,0,0,0,0,0,0,0,0,0,0,0,0,0,0,0,0,0,0,0,0,0,0,0,0,0,0,0,0,0,0,0,0],"id":10,"left_children":[1,3,5,7,9,11,13,15,17,19,21,23,25,27,29,31,33,35,37,39,41,43,-1,45,-1,47,49,51,53,55,57,59,-1,61,63,65,67,69,71,73,75,-1,-1,-1,-1,77,-1,79,81,83,85,-1,87,-1,89,-1,-1,91,93,-1,-1,-1,-1,-1,-1,-1,-1,-1,-1,-1,-1,-1,-1,-1,-1,-1,-1,-1,-1,-1,-1,-1,-1,-1,-1,-1,-1,-1,-1,-1,-1,-1,-1,-1,-1],"loss_changes":[2.3733688E2,7.2915794E1,6.507428E1,3.3007793E1,5.259985E1,4.9941025E1,5.8891434E1,3.0401329E1,2.4734161E1,4.5225548E1,3.5045475E1,3.3672554E1,4.0687004E1,4.3048065E1,1.0071131E1,1.688076E1,1.1094872E1,2.0490166E1,3.3013802E0,3.5241714E1,3.1557419E1,4.6678245E-2,0E0,7.1257963E0,0E0,2.728273E1,5.0789307E1,8.698622E0,1.7358139E1,2.0809727E0,2.4392047E0,1.4889923E1,0E0,4.4067984E0,1.2117004E1,3.0599215E1,4.726832E1,4.4526615E0,2.6505768E0,1.6729965E1,3.455365E1,0E0,0E0,0E0,0E0,8.647442E-4,0E0,1.7496231E1,1.7523575E1,7.394823E1,3.412156E1,0E0,3.6772766E0,0E0,2.7465363E0,0E0,0E0,4.6702156E0,6.7894626E0,0E0,0E0,0E0,0E0,0E0,0E0,0E0,0E0,0E0,0E0,0E0,0E0,0E0,0E0,0E0,0E0,0E0,0E0,0E0,0E0,0E0,0E0,0E0,0E0,0E0,0E0,0E0,0E0,0E0,0E0,0E0,0E0,0E0,0E0,0E0,0E0],"parents":[2147483647,0,0,1,1,2,2,3,3,4,4,5,5,6,6,7,7,8,8,9,9,10,10,11,11,12,12,13,13,14,14,15,15,16,16,17,17,18,18,19,19,20,20,21,21,23,23,25,25,26,26,27,27,28,28,29,29,30,30,31,31,33,33,34,34,35,35,36,36,37,37,38,38,39,39,40,40,45,45,47,47,48,48,49,49,50,50,52,52,54,54,57,57,58,58],"right_children":[2,4,6,8,10,12,14,16,18,20,22,24,26,28,30,32,34,36,38,40,42,44,-1,46,-1,48,50,52,54,56,58,60,-1,62,64,66,68,70,72,74,76,-1,-1,-1,-1,78,-1,80,82,84,86,-1,88,-1,90,-1,-1,92,94,-1,-1,-1,-1,-1,-1,-1,-1,-1,-1,-1,-1,-1,-1,-1,-1,-1,-1,-1,-1,-1,-1,-1,-1,-1,-1,-1,-1,-1,-1,-1,-1,-1,-1,-1,-1],"split_conditions":[3.717E1,1E0,6E0,6E0,2.987E3,8.243E3,6.2162E4,2.018E3,1.715E2,2.414E2,2.007E3,1.368E1,1.5775E2,4.293E1,1.205E1,2.36E3,1.282E1,1.37E1,7.45E4,2.009E3,6.0146E4,2.006E3,1.3038017E0,2E0,1.3987516E0,1.38E2,1.9E2,2.017E3,6.463E1,2.013E3,5.4E1,1.194E3,-7.6343435E-1,2.019E3,1.08E1,2.015E3,1.5E1,3.9854E4,2.012E3,1.81E2,1.7237072E1,1.5530931E0,-2.1168195E-1,-1.5691438E-1,-3.0689336E-2,1.997E3,6.2071157E-1,1.85E1,1E0,5.638E4,2.03E2,-2.3841248E-1,2.019E3,1.7710065E0,1E0,-5.62454E-1,-1.5856648E-2,1.21362E5,2.01E3,-9.073277E-2,-4.0647265E-2,7.4362964E-3,1.2807664E-1,-5.353718E-1,2.3476645E-1,4.4338364E-2,2.8377384E-1,-3.221107E-1,3.3872977E-2,7.976146E-2,-5.1827043E-1,-3.210227E-1,6.146822E-2,-1.0664817E-1,-5.4261714E-1,-4.773949E-3,1.1311026E-1,-2.6723672E-2,-9.826012E-2,-3.1228542E-2,5.6300783E-1,-4.9679255E-1,8.675014E-2,4.0249538E-1,3.8300276E-2,-6.374572E-2,2.046848E-1,3.1208628E-1,8.355801E-1,8.752033E-1,2.3416406E-1,4.6213087E-1,-4.61525E-2,-4.2400348E-1,2.5347477E-1],"split_indices":[9,3,8,8,7,1,1,0,6,6,0,5,6,9,5,7,9,5,1,0,1,0,0,2,0,6,6,0,9,0,9,7,0,0,5,0,5,1,0,6,9,0,0,0,0,1,0,5,4,1,6,0,0,0,4,0,0,1,0,0,0,0,0,0,0,0,0,0,0,0,0,0,0,0,0,0,0,0,0,0,0,0,0,0,0,0,0,0,0,0,0,0,0,0,0],"split_type":[0,0,0,0,0,0,0,0,0,0,0,0,0,0,0,0,0,0,0,0,0,0,0,0,0,0,0,0,0,0,0,0,0,0,0,0,0,0,0,0,0,0,0,0,0,0,0,0,0,0,0,0,0,0,0,0,0,0,0,0,0,0,0,0,0,0,0,0,0,0,0,0,0,0,0,0,0,0,0,0,0,0,0,0,0,0,0,0,0,0,0,0,0,0,0],"sum_hessian":[5.549E3,5.07E3,4.79E2,4.102E3,9.68E2,4.48E2,3.1E1,3.514E3,5.88E2,9.62E2,6E0,8E0,4.4E2,1.8E1,1.3E1,3.302E3,2.12E2,5.74E2,1.4E1,9.59E2,3E0,2E0,4E0,4E0,4E0,4.4E1,3.96E2,9E0,9E0,2E0,1.1E1,3.3E3,2E0,1.71E2,4.1E1,2.5E2,3.24E2,9E0,5E0,5.1E1,9.08E2,2E0,1E0,1E0,1E0,3E0,1E0,2.2E1,2.2E1,2.27E2,1.69E2,1E0,8E0,5E0,4E0,1E0,1E0,7E0,4E0,6.71E2,2.629E3,1.38E2,3.3E1,1E0,4E1,1.86E2,6.4E1,3.7E1,2.87E2,1E0,8E0,2E0,3E0,4.2E1,9E0,3.98E2,5.1E2,1E0,2E0,1.7E1,5E0,1.6E1,6E0,1.52E2,7.5E1,8.8E1,8.1E1,6E0,2E0,2E0,2E0,5E0,2E0,1E0,3E0],"tree_param":{"num_deleted":"0","num_feature":"10","num_nodes":"95","size_leaf_vector":"1"}},{"base_weights":[8.421032E-3,-2.8954135E-2,6.016268E-1,-7.631649E-2,1.4676966E-1,1.0399784E0,3.1730354E-1,-1.842604E-1,-1.6486418E-2,2.5255877E-1,-8.724667E-2,6.840981E-1,2.2992573E0,-2.08132E0,4.6712554E-1,-6.833069E-1,-1.6798727E-1,-1.424448E-1,6.7681305E-2,1.5538527E-1,1.0168407E0,-1.710865E0,-2.8826764E-2,-4.066717E-1,1.4239053E0,2.6857042E0,-1.8163687E0,1.3047053E0,-2.8889956E0,2.9184964E-1,1.6672899E0,-5.6348693E-1,-4.6593988E-1,4.8795704E-2,-1.955103E-1,-9.741457E-2,-4.0502536E-1,2.580026E-1,-3.6654114E-3,1.399519E-1,1.0759163E0,1.3988124E0,-2.8203607E-2,-2.7156591E-2,-2.044891E0,1.23633675E-1,-5.327494E-1,3.5352474E-1,-1.7985936E0,2.0194595E0,1.1296021E-3,1.0609175E0,3.4834785E0,-6.5655017E-1,-1.6081582E-1,-3.7370683E-3,5.9085447E-1,1.6564465E-1,-9.9980855E-1,2.4573371E-1,1.1920648E0,6.2384844E-1,3.6761918E0,-2.228461E-1,-7.681983E-2,-7.577052E-2,1.2744693E-1,-4.622532E-2,-1.5634942E-1,2.2074474E-2,-5.088811E-2,-1.427836E-1,3.8298566E-2,7.151222E-2,6.9107056E-1,2.2827888E-2,-1.3269477E-1,3.243705E-2,3.2479674E-1,7.562387E-1,1.4619087E-1,-1.786586E-1,1.2424743E0,2.123791E-2,-3.345838E-2,-2.233855E-1,-8.36291E-1,-7.294121E-2,1.1554236E-1,-2.6215094E-1,-3.93513E-2,1.1290959E0,2.6348751E-2,-9.7746545E-1,1.0050251E-1,-6.335055E-2,6.760969E-1,6.0498583E-1,-1.5084404E-1,9.4790705E-2,8.081423E-1,1.3927538E0,4.7977534E-1,-3.394548E-1,9.404515E-2,4.0526628E-1,-5.1752158E-2,1.5047033E0,3.24836E-1],"categories":[],"categories_nodes":[],"categories_segments":[],"categories_sizes":[],"default_left":[0,0,0,0,0,0,0,0,0,0,0,0,0,0,0,0,0,0,0,0,0,0,0,0,0,0,0,0,0,0,0,0,0,0,0,0,0,0,0,0,0,0,0,0,0,0,0,0,0,0,0,0,0,0,0,0,0,0,0,0,0,0,0,0,0,0,0,0,0,0,0,0,0,0,0,0,0,0,0,0,0,0,0,0,0,0,0,0,0,0,0,0,0,0,0,0,0,0,0,0,0,0,0,0,0,0,0,0,0],"id":11,"left_children":[1,3,5,7,9,11,13,15,17,19,21,23,25,27,29,31,33,35,37,39,41,43,45,47,49,51,53,55,57,59,61,63,-1,65,67,69,71,73,75,77,-1,79,81,83,85,87,89,91,93,95,97,99,101,-1,-1,-1,-1,-1,-1,103,-1,105,107,-1,-1,-1,-1,-1,-1,-1,-1,-1,-1,-1,-1,-1,-1,-1,-1,-1,-1,-1,-1,-1,-1,-1,-1,-1,-1,-1,-1,-1,-1,-1,-1,-1,-1,-1,-1,-1,-1,-1,-1,-1,-1,-1,-1,-1,-1],"loss_changes":[1.2306739E2,4.3472298E1,4.0674446E1,2.6566374E1,2.747686E1,5.623877E1,7.3204926E1,1.1798794E1,2.8082758E1,5.6582706E1,3.2769344E1,8.2888916E1,4.9411407E1,3.658701E1,3.9481766E1,3.9190636E0,8.493938E0,1.250588E1,2.1564081E1,3.545244E1,3.4368706E1,6.6932945E0,2.5803335E1,4.5077484E1,5.168547E1,3.0005875E1,2.5618744E-1,2.6515203E0,1.7108467E1,2.737767E1,4.8014732E1,2.1252842E0,0E0,1.8352003E1,1.6944744E1,1.1212164E1,5.9163723E0,1.6836462E1,4.0477524E1,2.0196167E1,0E0,6.32016E1,5.924139E1,3.268782E-2,7.581993E0,2.4839294E1,1.0569286E1,2.5039007E1,4.7805393E1,2.2939362E1,2.0312132E1,1.131303E1,2.9701477E1,0E0,0E0,0E0,0E0,0E0,0E0,1.584397E1,0E0,1.0075726E1,2.2359734E1,0E0,0E0,0E0,0E0,0E0,0E0,0E0,0E0,0E0,0E0,0E0,0E0,0E0,0E0,0E0,0E0,0E0,0E0,0E0,0E0,0E0,0E0,0E0,0E0,0E0,0E0,0E0,0E0,0E0,0E0,0E0,0E0,0E0,0E0,0E0,0E0,0E0,0E0,0E0,0E0,0E0,0E0,0E0,0E0,0E0,0E0],"parents":[2147483647,0,0,1,1,2,2,3,3,4,4,5,5,6,6,7,7,8,8,9,9,10,10,11,11,12,12,13,13,14,14,15,15,16,16,17,17,18,18,19,19,20,20,21,21,22,22,23,23,24,24,25,25,26,26,27,27,28,28,29,29,30,30,31,31,33,33,34,34,35,35,36,36,37,37,38,38,39,39,41,41,42,42,43,43,44,44,45,45,46,46,47,47,48,48,49,49,50,50,51,51,52,52,59,59,61,61,62,62],"right_children":[2,4,6,8,10,12,14,16,18,20,22,24,26,28,30,32,34,36,38,40,42,44,46,48,50,52,54,56,58,60,62,64,-1,66,68,70,72,74,76,78,-1,80,82,84,86,88,90,92,94,96,98,100,102,-1,-1,-1,-1,-1,-1,104,-1,106,108,-1,-1,-1,-1,-1,-1,-1,-1,-1,-1,-1,-1,-1,-1,-1,-1,-1,-1,-1,-1,-1,-1,-1,-1,-1,-1,-1,-1,-1,-1,-1,-1,-1,-1,-1,-1,-1,-1,-1,-1,-1,-1,-1,-1,-1,-1],"split_conditions":[4.293E1,1E0,1.467E1,2.013E3,6.2E4,1.416E1,1.5E1,2.006E3,1.242E3,1.84E2,6.3E4,2.149E3,7.2486E4,4.376E1,2.018E3,1.139E1,1.32E1,8.67E1,1.396E3,2.987E3,2.198E3,1.2E2,1.776E2,4.5501E4,8.6E4,4.48E1,2.013E3,2.013E3,1.685E2,2.982E3,5.867E1,1.025E2,-4.6593988E-1,9.3144E4,1.394E1,1.87E1,2.018E3,1.15E2,2.308E1,2.34E1,1.0759163E0,1.647E1,2.414E2,2.011E3,1.299E1,1.3901E2,3.084E1,2.008E3,6E4,2.01E3,4.932E1,2.015E3,5.0318E4,-6.5655017E-1,-1.6081582E-1,-3.7370683E-3,5.9085447E-1,1.6564465E-1,-9.9980855E-1,1.4E4,1.1920648E0,4.856E1,1.8908E2,-2.228461E-1,-7.681983E-2,-7.577052E-2,1.2744693E-1,-4.622532E-2,-1.5634942E-1,2.2074474E-2,-5.088811E-2,-1.427836E-1,3.8298566E-2,7.151222E-2,6.9107056E-1,2.2827888E-2,-1.3269477E-1,3.243705E-2,3.2479674E-1,7.562387E-1,1.4619087E-1,-1.786586E-1,1.2424743E0,2.123791E-2,-3.345838E-2,-2.233855E-1,-8.36291E-1,-7.294121E-2,1.1554236E-1,-2.6215094E-1,-3.93513E-2,1.1290959E0,2.6348751E-2,-9.7746545E-1,1.0050251E-1,-6.335055E-2,6.760969E-1,6.0498583E-1,-1.5084404E-1,9.4790705E-2,8.081423E-1,1.3927538E0,4.7977534E-1,-3.394548E-1,9.404515E-2,4.0526628E-1,-5.1752158E-2,1.5047033E0,3.24836E-1],"split_indices":[9,3,5,0,1,5,5,0,7,6,1,7,1,9,0,9,5,6,7,7,7,6,6,1,1,9,0,0,6,7,9,6,0,1,9,5,0,6,5,5,0,5,6,0,5,6,9,0,1,0,9,0,1,0,0,0,0,0,0,1,0,9,6,0,0,0,0,0,0,0,0,0,0,0,0,0,0,0,0,0,0,0,0,0,0,0,0,0,0,0,0,0,0,0,0,0,0,0,0,0,0,0,0,0,0,0,0,0,0],"split_type":[0,0,0,0,0,0,0,0,0,0,0,0,0,0,0,0,0,0,0,0,0,0,0,0,0,0,0,0,0,0,0,0,0,0,0,0,0,0,0,0,0,0,0,0,0,0,0,0,0,0,0,0,0,0,0,0,0,0,0,0,0,0,0,0,0,0,0,0,0,0,0,0,0,0,0,0,0,0,0,0,0,0,0,0,0,0,0,0,0,0,0,0,0,0,0,0,0,0,0,0,0,0,0,0,0,0,0,0,0],"sum_hessian":[5.549E3,5.221E3,3.28E2,4.113E3,1.108E3,1.28E2,2E2,1.466E3,2.647E3,7.63E2,3.45E2,1.01E2,2.7E1,1.1E1,1.89E2,4.5E1,1.421E3,1.06E3,1.587E3,6.78E2,8.5E1,1.1E1,3.34E2,4.1E1,6E1,2.5E1,2E0,2E0,9E0,1.66E2,2.3E1,4.1E1,4E0,1.6E2,1.261E3,9.06E2,1.54E2,4.32E2,1.155E3,6.76E2,2E0,6.2E1,2.3E1,2E0,9E0,2.57E2,7.7E1,2.7E1,1.4E1,4.2E1,1.8E1,9E0,1.6E1,1E0,1E0,1E0,1E0,1E0,8E0,1.65E2,1E0,1.6E1,7E0,2.5E1,1.6E1,8.9E1,7.1E1,1.12E3,1.41E2,2.69E2,6.37E2,1.36E2,1.8E1,4.29E2,3E0,9.78E2,1.77E2,6.55E2,2.1E1,2.7E1,3.5E1,2.1E1,2E0,1E0,1E0,4E0,5E0,1.07E2,1.5E2,4.1E1,3.6E1,1E0,2.6E1,8E0,6E0,4E0,3.8E1,3E0,1.5E1,7E0,2E0,9E0,7E0,7E0,1.58E2,8E0,8E0,4E0,3E0],"tree_param":{"num_deleted":"0","num_feature":"10","num_nodes":"109","size_leaf_vector":"1"}},{"base_weights":[7.3105097E-3,-1.9947812E-2,4.3994164E-1,5.823756E-2,-9.881715E-2,3.6190838E-1,1.7680769E0,5.889991E-1,1.9589242E-2,-1.0185643E-1,7.698424E-1,2.570076E-1,1.2717588E0,1.1909878E0,6.158175E-1,2.7385002E-1,1.3473631E0,1.9138049E0,1.0246253E-2,-7.094657E-2,-2.913666E-1,3.248303E-1,-9.6737057E-1,7.312029E-1,2.8020263E0,-9.9180156E-1,9.982757E-1,4.758484E-1,-9.757983E-1,2.6904962E0,5.5716044E-1,1.0831842E0,9.470225E-1,-6.149172E-2,1.3331704E-1,-4.5319304E-2,-3.9643347E-1,-5.7641244E-1,-8.88746E-2,4.8324347E-1,-2.4183384E-1,-1.8598424E0,3.2224643E0,1.4930885E0,1.2374E-1,1.1435745E0,8.39159E-1,-4.5545915E-1,9.148408E-3,1.9234507E0,4.109037E-1,3.785179E-1,1.01544335E-1,5.5900697E-2,-6.475909E-1,-3.8554266E-2,1.1119397E0,3.8996667E-1,8.3589874E-2,3.9995736E-1,-8.091355E-2,-1.6389953E-2,-6.4643013E-1,-1.7600958E-1,5.7362523E-2,-2.1225657E-2,3.9689485E-2,-4.167378E-2,-2.290036E-1,-1.6293083E-1,-8.359309E-1,5.6309146E-1,-4.9325995E-2,1.922086E-1,-1.6723564E-1,6.26863E-2,-3.2024878E-1,-6.908814E-1,5.1859534E-1,1.2563828E0,1.9372617E-1,-9.493161E-2,6.633648E-1,8.2689E-2,-3.00408E-1,4.590519E-1,-1.8508244E-1,8.230825E-1,-8.055325E-2,-3.377764E-1,2.373888E-1],"categories":[],"categories_nodes":[],"categories_segments":[],"categories_sizes":[],"default_left":[0,0,0,0,0,0,0,0,0,0,0,0,0,0,0,0,0,0,0,0,0,0,0,0,0,0,0,0,0,0,0,0,0,0,0,0,0,0,0,0,0,0,0,0,0,0,0,0,0,0,0,0,0,0,0,0,0,0,0,0,0,0,0,0,0,0,0,0,0,0,0,0,0,0,0,0,0,0,0,0,0,0,0,0,0,0,0,0,0,0,0],"id":12,"left_children":[1,3,5,7,9,11,13,15,17,19,-1,21,23,-1,25,27,29,31,33,35,37,39,41,43,45,47,49,51,53,55,57,-1,59,61,63,65,67,69,71,73,75,77,79,81,83,-1,85,-1,-1,87,89,-1,-1,-1,-1,-1,-1,-1,-1,-1,-1,-1,-1,-1,-1,-1,-1,-1,-1,-1,-1,-1,-1,-1,-1,-1,-1,-1,-1,-1,-1,-1,-1,-1,-1,-1,-1,-1,-1,-1,-1],"loss_changes":[6.545881E1,3.220685E1,3.3457264E1,5.3794174E1,2.1320246E1,2.945169E1,4.3223736E1,4.217261E1,4.3268803E1,1.51977215E1,0E0,2.364865E1,2.4421394E1,0E0,8.983103E0,3.2522552E1,5.369104E1,1.6266018E1,2.1506445E1,1.8624924E1,2.095867E1,2.4084673E1,6.2082916E1,1.1385674E1,1.2659412E1,1.6606934E0,5.1872883E0,1.1447865E1,2.514532E1,5.4892853E1,6.671399E0,0E0,4.588358E0,2.1977434E1,3.7501556E1,9.373781E0,1.5295416E1,9.602589E0,3.208988E1,3.4603775E1,2.218278E1,2.4651558E1,4.758894E0,1.4993902E1,2.8393762E0,0E0,4.96877E0,0E0,0E0,7.927704E0,5.567708E0,0E0,0E0,0E0,0E0,0E0,0E0,0E0,0E0,0E0,0E0,0E0,0E0,0E0,0E0,0E0,0E0,0E0,0E0,0E0,0E0,0E0,0E0,0E0,0E0,0E0,0E0,0E0,0E0,0E0,0E0,0E0,0E0,0E0,0E0,0E0,0E0,0E0,0E0,0E0,0E0],"parents":[2147483647,0,0,1,1,2,2,3,3,4,4,5,5,6,6,7,7,8,8,9,9,11,11,12,12,14,14,15,15,16,16,17,17,18,18,19,19,20,20,21,21,22,22,23,23,24,24,25,25,26,26,27,27,28,28,29,29,30,30,32,32,33,33,34,34,35,35,36,36,37,37,38,38,39,39,40,40,41,41,42,42,43,43,44,44,46,46,49,49,50,50],"right_children":[2,4,6,8,10,12,14,16,18,20,-1,22,24,-1,26,28,30,32,34,36,38,40,42,44,46,48,50,52,54,56,58,-1,60,62,64,66,68,70,72,74,76,78,80,82,84,-1,86,-1,-1,88,90,-1,-1,-1,-1,-1,-1,-1,-1,-1,-1,-1,-1,-1,-1,-1,-1,-1,-1,-1,-1,-1,-1,-1,-1,-1,-1,-1,-1,-1,-1,-1,-1,-1,-1,-1,-1,-1,-1,-1,-1],"split_conditions":[4.293E1,2E0,6E0,2.5E4,4E0,2.018E3,4.6601E4,1.999E3,1.04E1,1.683E1,7.698424E-1,2.414E2,5.867E1,1.1909878E0,1.205E1,1.6762E2,6E0,1.731E1,1.43E1,1.595E3,1.598E3,1.89E1,6.801E4,1.77E1,1.8908E2,2.013E3,6.088E1,6E3,1.6573E4,1.4E4,1.1827E4,1.0831842E0,2.015E3,1.475E2,2.01E3,1.173E2,1.467E1,2.985E1,5E0,6.349E1,5.541E4,2.65E2,2.013E3,1.118E1,3.6884E4,1.1435745E0,1.815E1,-4.5545915E-1,9.148408E-3,2E0,2.01E3,3.785179E-1,1.01544335E-1,5.5900697E-2,-6.475909E-1,-3.8554266E-2,1.1119397E0,3.8996667E-1,8.3589874E-2,3.9995736E-1,-8.091355E-2,-1.6389953E-2,-6.4643013E-1,-1.7600958E-1,5.7362523E-2,-2.1225657E-2,3.9689485E-2,-4.167378E-2,-2.290036E-1,-1.6293083E-1,-8.359309E-1,5.6309146E-1,-4.9325995E-2,1.922086E-1,-1.6723564E-1,6.26863E-2,-3.2024878E-1,-6.908814E-1,5.1859534E-1,1.2563828E0,1.9372617E-1,-9.493161E-2,6.633648E-1,8.2689E-2,-3.00408E-1,4.590519E-1,-1.8508244E-1,8.230825E-1,-8.055325E-2,-3.377764E-1,2.373888E-1],"split_indices":[9,2,8,1,2,0,1,7,5,9,0,6,9,0,5,6,8,9,9,7,7,5,1,5,6,0,9,1,1,1,1,0,0,6,0,6,5,9,8,9,1,6,0,5,1,0,5,0,0,4,0,0,0,0,0,0,0,0,0,0,0,0,0,0,0,0,0,0,0,0,0,0,0,0,0,0,0,0,0,0,0,0,0,0,0,0,0,0,0,0,0],"split_type":[0,0,0,0,0,0,0,0,0,0,0,0,0,0,0,0,0,0,0,0,0,0,0,0,0,0,0,0,0,0,0,0,0,0,0,0,0,0,0,0,0,0,0,0,0,0,0,0,0,0,0,0,0,0,0,0,0,0,0,0,0,0,0,0,0,0,0,0,0,0,0,0,0,0,0,0,0,0,0,0,0,0,0,0,0,0,0,0,0,0,0],"sum_hessian":[5.549E3,5.221E3,3.28E2,2.622E3,2.599E3,3.11E2,1.7E1,1.77E2,2.445E3,2.597E3,2E0,2.8E2,3.1E1,5E0,1.2E1,1.26E2,5.1E1,1.1E1,2.434E3,2.234E3,3.63E2,2.66E2,1.4E1,2.4E1,7E0,2E0,1E1,1.09E2,1.7E1,1.8E1,3.3E1,3E0,8E0,1.538E3,8.96E2,2.072E3,1.62E2,1.5E2,2.13E2,2.08E2,5.8E1,1.2E1,2E0,1E1,1.4E1,4E0,3E0,1E0,1E0,3E0,7E0,1.5E1,9.4E1,9E0,8E0,5E0,1.3E1,8E0,2.5E1,6E0,2E0,1.534E3,4E0,6.6E1,8.3E2,1.813E3,2.59E2,9.6E1,6.6E1,1.49E2,1E0,7E0,2.06E2,1.81E2,2.7E1,3.8E1,2E1,1.1E1,1E0,1E0,1E0,3E0,7E0,1.3E1,1E0,2E0,1E0,2E0,1E0,1E0,6E0],"tree_param":{"num_deleted":"0","num_feature":"10","num_nodes":"91","size_leaf_vector":"1"}},{"base_weights":[6.2504914E-3,-6.463429E-3,5.201688E-1,2.0138972E-1,-2.7733758E-2,3.228214E-1,1.1935457E0,1.4853767E-1,1.6172066E0,-2.3537815E-2,-1.6081167E0,1.4566609E0,1.3237731E-1,-5.807478E-1,1.4862089E0,5.162281E-1,-3.861329E-2,1.861524E0,6.55905E-1,-4.2022374E-2,2.4221532E-1,1.791115E-2,-1.9167845E0,1.8578897E0,-1.11190796E-1,-1.5455488E0,2.6900208E-1,1.0242206E0,2.7258568E0,-4.739624E-2,1.0406247E0,3.991918E-1,-2.4540018E-1,-8.5011315E-1,2.2681873E0,-4.8816614E-2,5.8792627E-1,8.0901675E-2,6.5177E-1,-1.0795171E0,-7.3037636E-1,4.7525406E-2,2.4560637E0,4.0649605E-1,-6.764586E-1,9.309002E-1,-2.8374739E0,1.332613E0,7.590696E-2,-3.4639436E-1,1.1829594E0,1.1420796E0,1.5445709E-2,3.935978E-1,-9.922208E-2,1.1194634E-1,8.1646913E-1,4.9402814E-2,2.2665866E-1,-2.13476E-1,-2.1042561E-2,-5.7831675E-1,1.19255625E-1,7.9722714E-1,-6.847029E-2,-8.072376E-2,-7.421357E-3,2.691169E-1,-4.1850162E-1,3.0182986E-2,-4.3316832E-1,1.1932526E-1,3.517112E-1,-1.22849755E-1,-3.9364544E-1,-8.9191824E-2,1.6230297E-1,2.0648748E-1,8.588443E-1,7.776261E-3,-1.0246012E0,5.8255345E-1,-4.0363237E-1,5.1895124E-1,-1.3512951E-2,1.20241545E-1,4.2069972E-1,2.379759E-1,-2.3102532E-1],"categories":[],"categories_nodes":[],"categories_segments":[],"categories_sizes":[],"default_left":[0,0,0,0,0,0,0,0,0,0,0,0,0,0,0,0,0,0,0,0,0,0,0,0,0,0,0,0,0,0,0,0,0,0,0,0,0,0,0,0,0,0,0,0,0,0,0,0,0,0,0,0,0,0,0,0,0,0,0,0,0,0,0,0,0,0,0,0,0,0,0,0,0,0,0,0,0,0,0,0,0,0,0,0,0,0,0,0,0],"id":13,"left_children":[1,3,5,7,9,11,13,15,17,19,21,23,25,-1,27,29,31,-1,33,35,37,-1,39,41,43,45,47,49,51,53,55,57,59,61,63,65,67,69,71,73,-1,75,77,-1,-1,-1,79,81,83,-1,85,-1,87,-1,-1,-1,-1,-1,-1,-1,-1,-1,-1,-1,-1,-1,-1,-1,-1,-1,-1,-1,-1,-1,-1,-1,-1,-1,-1,-1,-1,-1,-1,-1,-1,-1,-1,-1,-1],"loss_changes":[3.6266594E1,2.3954712E1,1.7421852E1,3.7398674E1,3.255449E1,2.2480139E1,3.0352596E1,3.346335E1,7.5315994E1,2.4095333E1,6.8068695E0,9.64259E0,2.1277168E1,0E0,1.3243801E1,4.85216E1,2.933991E1,0E0,4.0778236E1,1.9652597E1,2.1022568E1,0E0,2.1407585E0,1.2878231E1,1.5627317E1,5.0843727E1,1.7355984E1,8.975065E0,2.0452312E1,3.1247906E1,9.435246E1,8.566513E0,1.7924763E1,1.2866444E1,8.380108E0,2.4056004E1,3.128761E1,7.0570226E0,1.1435516E1,3.978901E-1,0E0,8.415215E-1,4.500927E0,0E0,0E0,0E0,1.001643E1,2.382286E1,1.4681065E1,0E0,3.041191E0,0E0,2.4438448E0,0E0,0E0,0E0,0E0,0E0,0E0,0E0,0E0,0E0,0E0,0E0,0E0,0E0,0E0,0E0,0E0,0E0,0E0,0E0,0E0,0E0,0E0,0E0,0E0,0E0,0E0,0E0,0E0,0E0,0E0,0E0,0E0,0E0,0E0,0E0,0E0],"parents":[2147483647,0,0,1,1,2,2,3,3,4,4,5,5,6,6,7,7,8,8,9,9,10,10,11,11,12,12,14,14,15,15,16,16,18,18,19,19,20,20,22,22,23,23,24,24,25,25,26,26,27,27,28,28,29,29,30,30,31,31,32,32,33,33,34,34,35,35,36,36,37,37,38,38,39,39,41,41,42,42,46,46,47,47,48,48,50,50,52,52],"right_children":[2,4,6,8,10,12,14,16,18,20,22,24,26,-1,28,30,32,-1,34,36,38,-1,40,42,44,46,48,50,52,54,56,58,60,62,64,66,68,70,72,74,-1,76,78,-1,-1,-1,80,82,84,-1,86,-1,88,-1,-1,-1,-1,-1,-1,-1,-1,-1,-1,-1,-1,-1,-1,-1,-1,-1,-1,-1,-1,-1,-1,-1,-1,-1,-1,-1,-1,-1,-1,-1,-1,-1,-1,-1,-1],"split_conditions":[5.515E1,1.3E1,2.755E3,2.15E2,2.2434E2,1.86E4,2.01E3,2.199E3,3.1271E4,2.018E3,1.301E1,6.349E1,1.205E1,-5.807478E-1,1E0,1.302E2,1.084E2,1.861524E0,1.1E1,5.086E1,1.408E1,1.791115E-2,2.011E3,1.685E2,8.243E3,2.008E3,5.675E1,1.2E4,6.463E1,1.1E1,2.149E3,1.02418E5,1.65E2,1E0,2E0,1.5E1,6.3141E4,6.9E4,3E4,4.5165E4,-7.3037636E-1,1.1E4,2.015E3,4.0649605E-1,-6.764586E-1,9.309002E-1,1E0,1.792E1,1.29E1,-3.4639436E-1,2.2434E2,1.1420796E0,4.7E4,3.935978E-1,-9.922208E-2,1.1194634E-1,8.1646913E-1,4.9402814E-2,2.2665866E-1,-2.13476E-1,-2.1042561E-2,-5.7831675E-1,1.19255625E-1,7.9722714E-1,-6.847029E-2,-8.072376E-2,-7.421357E-3,2.691169E-1,-4.1850162E-1,3.0182986E-2,-4.3316832E-1,1.1932526E-1,3.517112E-1,-1.22849755E-1,-3.9364544E-1,-8.9191824E-2,1.6230297E-1,2.0648748E-1,8.588443E-1,7.776261E-3,-1.0246012E0,5.8255345E-1,-4.0363237E-1,5.1895124E-1,-1.3512951E-2,1.20241545E-1,4.2069972E-1,2.379759E-1,-2.3102532E-1],"split_indices":[9,5,7,6,6,1,0,7,1,0,5,9,5,0,4,6,6,0,5,9,9,0,0,6,1,0,9,1,9,5,7,1,6,4,4,5,1,1,1,1,0,1,0,0,0,0,3,5,5,0,6,0,1,0,0,0,0,0,0,0,0,0,0,0,0,0,0,0,0,0,0,0,0,0,0,0,0,0,0,0,0,0,0,0,0,0,0,0,0],"split_type":[0,0,0,0,0,0,0,0,0,0,0,0,0,0,0,0,0,0,0,0,0,0,0,0,0,0,0,0,0,0,0,0,0,0,0,0,0,0,0,0,0,0,0,0,0,0,0,0,0,0,0,0,0,0,0,0,0,0,0,0,0,0,0,0,0,0,0,0,0,0,0,0,0,0,0,0,0,0,0,0,0,0,0,0,0,0,0,0,0],"sum_hessian":[5.549E3,5.416E3,1.33E2,5.02E2,4.914E3,1.04E2,2.9E1,4.85E2,1.7E1,4.902E3,1.2E1,1.4E1,9E1,2E0,2.7E1,1.63E2,3.22E2,2E0,1.5E1,4.584E3,3.18E2,2E0,1E1,1.1E1,3E0,6E0,8.4E1,2.1E1,6E0,7.9E1,8.4E1,1.03E2,2.19E2,8E0,7E0,4.536E3,4.8E1,2.29E2,8.9E1,5E0,5E0,3E0,8E0,2E0,1E0,1E0,5E0,1.2E1,7.2E1,1E0,2E1,4E0,2E0,1.3E1,6.6E1,6.1E1,2.3E1,6.3E1,4E1,5.9E1,1.6E2,4E0,4E0,6E0,1E0,4.46E2,4.09E3,4.2E1,6E0,2.27E2,2E0,6.1E1,2.8E1,2E0,3E0,2E0,1E0,2E0,6E0,1E0,4E0,1E1,2E0,4E0,6.8E1,5E0,1.5E1,1E0,1E0],"tree_param":{"num_deleted":"0","num_feature":"10","num_nodes":"89","size_leaf_vector":"1"}},{"base_weights":[5.136978E-3,-5.090219E-2,8.934501E-2,-3.1612344E-2,-3.611582E-1,2.714375E-1,1.8684167E-2,-3.6040887E-2,1.2309803E0,-1.5924656E-1,-7.2755843E-1,1.9704887E-1,1.0320287E0,-1.4725322E0,2.7107965E-2,-1.6094794E-2,-3.4106994E-1,1.3920119E0,-5.6900457E-2,-1.1306599E0,-1.01733014E-1,-1.5464433E-1,-8.577948E-1,1.2029436E0,1.6370979E-1,1.7044685E0,4.148466E-1,1.8486215E-2,-1.6720039E0,5.7827223E-2,-2.6838723E-1,-2.7804613E-2,6.3433486E-1,-2.4555385E-1,-8.9175165E-1,2.1302487E-1,4.7484803E-1,-3.8769177E-1,-2.4117602E-2,-1.381838E-1,6.199376E-1,-2.696663E-1,2.0109624E-1,-1.2116761E0,-5.333204E-1,1.8156182E0,-1.9204617E-2,1.1815447E-1,7.1081436E-1,5.322665E-1,3.2545378E0,1.320679E-1,1.2923144E0,-2.5656608E-1,-6.8249476E-1,3.3954635E-2,8.155528E-1,-8.822533E-3,-1.0069221E0,-3.805352E-2,3.0072408E-3,1.3024443E-1,3.7963358E-1,-1.20989166E-1,6.7803375E-2,2.1353908E-2,-3.0304518E-1,1.0939271E-1,-5.3641953E-2,-4.9010668E-2,2.427818E-1,-1.2443402E-1,4.816039E-2,-9.5281325E-2,-3.8188457E-1,-2.0281777E-1,3.0727834E-1,6.3661695E-1,2.0166822E-1,-2.3336495E-1,2.2328253E-1,3.201779E-1,2.6728896E-2,1.5626375E-1,7.154938E-1,-2.5383808E-2,3.4791666E-1,1.1456287E0,3.9373642E-1,2.2679056E-1,-2.8727543E-1,-2.4617224E-3,9.3198664E-2,3.139089E-1,-2.2151442E-2,-3.244371E-1,4.6633877E-2,-3.519363E-1,-9.677369E-2],"categories":[],"categories_nodes":[],"categories_segments":[],"categories_sizes":[],"default_left":[0,0,0,0,0,0,0,0,0,0,0,0,0,0,0,0,0,0,0,0,0,0,0,0,0,0,0,0,0,0,0,0,0,0,0,0,0,0,0,0,0,0,0,0,0,0,0,0,0,0,0,0,0,0,0,0,0,0,0,0,0,0,0,0,0,0,0,0,0,0,0,0,0,0,0,0,0,0,0,0,0,0,0,0,0,0,0,0,0,0,0,0,0,0,0,0,0,0,0],"id":14,"left_children":[1,3,5,7,9,11,13,15,17,19,21,23,25,27,29,31,33,35,-1,37,39,41,43,45,47,49,51,-1,53,55,57,59,61,63,65,-1,-1,-1,-1,67,69,71,-1,73,75,77,79,81,83,85,87,89,-1,-1,-1,91,93,95,97,-1,-1,-1,-1,-1,-1,-1,-1,-1,-1,-1,-1,-1,-1,-1,-1,-1,-1,-1,-1,-1,-1,-1,-1,-1,-1,-1,-1,-1,-1,-1,-1,-1,-1,-1,-1,-1,-1,-1,-1],"loss_changes":[2.6194708E1,1.9935886E1,2.8533506E1,1.7595905E1,1.4310329E1,3.487583E1,2.0126085E1,1.903178E1,2.7804852E0,6.9803925E0,5.015732E0,1.8784218E1,2.2118881E1,2.8572102E0,1.4457654E1,2.2394663E1,9.880028E0,1.7728233E-1,0E0,1.0845098E0,3.2686257E0,1.5092106E0,5.7840157E0,1.351289E1,1.35990305E1,4.5509575E1,3.2455696E1,0E0,1.9944134E0,2.605646E1,2.874575E1,1.0817638E1,6.0202866E0,1.2364885E1,3.264183E0,0E0,0E0,0E0,0E0,2.4346344E0,1.0220544E0,8.781515E-1,0E0,1.0200348E0,7.584606E0,2.7780418E0,4.633609E0,1.3915169E1,1.2112995E1,6.2911572E0,7.0415344E0,2.0439117E1,0E0,0E0,0E0,1.6323418E1,9.109602E0,1.9902548E1,4.0573273E0,0E0,0E0,0E0,0E0,0E0,0E0,0E0,0E0,0E0,0E0,0E0,0E0,0E0,0E0,0E0,0E0,0E0,0E0,0E0,0E0,0E0,0E0,0E0,0E0,0E0,0E0,0E0,0E0,0E0,0E0,0E0,0E0,0E0,0E0,0E0,0E0,0E0,0E0,0E0,0E0],"parents":[2147483647,0,0,1,1,2,2,3,3,4,4,5,5,6,6,7,7,8,8,9,9,10,10,11,11,12,12,13,13,14,14,15,15,16,16,17,17,19,19,20,20,21,21,22,22,23,23,24,24,25,25,26,26,28,28,29,29,30,30,31,31,32,32,33,33,34,34,39,39,40,40,41,41,43,43,44,44,45,45,46,46,47,47,48,48,49,49,50,50,51,51,55,55,56,56,57,57,58,58],"right_children":[2,4,6,8,10,12,14,16,18,20,22,24,26,28,30,32,34,36,-1,38,40,42,44,46,48,50,52,-1,54,56,58,60,62,64,66,-1,-1,-1,-1,68,70,72,-1,74,76,78,80,82,84,86,88,90,-1,-1,-1,92,94,96,98,-1,-1,-1,-1,-1,-1,-1,-1,-1,-1,-1,-1,-1,-1,-1,-1,-1,-1,-1,-1,-1,-1,-1,-1,-1,-1,-1,-1,-1,-1,-1,-1,-1,-1,-1,-1,-1,-1,-1,-1],"split_conditions":[1.05E2,1.025E2,3.9E4,1.731E1,1.044E1,1E0,5E0,1.7237072E1,1.05E5,1.314E1,1.493E3,5E0,1.647E1,5.21E4,1.981E1,1.357E1,2.5E1,8.68E1,-5.6900457E-2,1E0,1.25E5,5.1E4,5.425E4,1.69E1,2.019E3,3.445E1,2.274E1,1.8486215E-2,2.012E3,1.96E1,2.015E3,1.856E1,1.627E1,2.119E1,2.9277E4,2.1302487E-1,4.7484803E-1,-3.8769177E-1,-2.4117602E-2,1.4E1,2.01E3,2.018E3,2.0109624E-1,1.3414E4,2.016E3,1.9E2,1.75E1,4.721E3,4.932E1,1.48E1,2.016E3,3.5E1,1.2923144E0,-2.5656608E-1,-6.8249476E-1,2.016E3,1.658E1,2.034E1,1.475E2,-3.805352E-2,3.0072408E-3,1.3024443E-1,3.7963358E-1,-1.20989166E-1,6.7803375E-2,2.1353908E-2,-3.0304518E-1,1.0939271E-1,-5.3641953E-2,-4.9010668E-2,2.427818E-1,-1.2443402E-1,4.816039E-2,-9.5281325E-2,-3.8188457E-1,-2.0281777E-1,3.0727834E-1,6.3661695E-1,2.0166822E-1,-2.3336495E-1,2.2328253E-1,3.201779E-1,2.6728896E-2,1.5626375E-1,7.154938E-1,-2.5383808E-2,3.4791666E-1,1.1456287E0,3.9373642E-1,2.2679056E-1,-2.8727543E-1,-2.4617224E-3,9.3198664E-2,3.139089E-1,-2.2151442E-2,-3.244371E-1,4.6633877E-2,-3.519363E-1,-9.677369E-2],"split_indices":[6,6,1,9,9,4,8,9,1,5,7,8,5,1,5,9,5,6,0,3,1,1,1,5,0,9,5,0,0,5,0,5,9,5,1,0,0,0,0,5,0,0,0,1,0,6,5,1,9,5,0,9,0,0,0,0,9,5,6,0,0,0,0,0,0,0,0,0,0,0,0,0,0,0,0,0,0,0,0,0,0,0,0,0,0,0,0,0,0,0,0,0,0,0,0,0,0,0,0],"split_type":[0,0,0,0,0,0,0,0,0,0,0,0,0,0,0,0,0,0,0,0,0,0,0,0,0,0,0,0,0,0,0,0,0,0,0,0,0,0,0,0,0,0,0,0,0,0,0,0,0,0,0,0,0,0,0,0,0,0,0,0,0,0,0,0,0,0,0,0,0,0,0,0,0,0,0,0,0,0,0,0,0,0,0,0,0,0,0,0,0,0,0,0,0,0,0,0,0,0,0],"sum_hessian":[5.549E3,3.332E3,2.217E3,3.138E3,1.94E2,6.19E2,1.598E3,3.128E3,1E1,1.26E2,6.8E1,5.65E2,5.4E1,8E0,1.59E3,2.937E3,1.91E2,9E0,1E0,6E0,1.2E2,1.3E1,5.5E1,1.7E1,5.48E2,2.5E1,2.9E1,1E0,7E0,1.441E3,1.49E2,2.886E3,5.1E1,1.64E2,2.7E1,3E0,6E0,5E0,1E0,1.15E2,5E0,1.2E1,1E0,2.5E1,3E1,1.1E1,6E0,5.07E2,4.1E1,1.5E1,1E1,2.8E1,1E0,4E0,3E0,1.398E3,4.3E1,1.11E2,3.8E1,7.97E2,2.089E3,4E1,1.1E1,1.23E2,4.1E1,3E0,2.4E1,8E0,1.07E2,1E0,4E0,9E0,3E0,2E0,2.3E1,2.8E1,2E0,8E0,3E0,3E0,3E0,1.4E1,4.93E2,3.8E1,3E0,8E0,7E0,7E0,3E0,1.8E1,1E1,1.214E3,1.84E2,3.4E1,9E0,1.4E1,9.7E1,3E1,8E0],"tree_param":{"num_deleted":"0","num_feature":"10","num_nodes":"99","size_leaf_vector":"1"}},{"base_weights":[4.3592476E-3,-4.353297E-3,4.0546855E-1,3.9668353E-3,-1.0723962E0,1.2871335E0,2.1240291E-1,-8.752644E-3,3.2261056E-1,-7.736979E-1,-1.1149817E0,3.02747E0,3.8916746E-1,-1.8876013E0,3.698771E-1,-1.1393113E-2,1.5113702E0,1.3393217E0,1.944648E-1,-1.5170661E0,8.355236E-3,1.4838731E0,1.2707119E0,-9.960945E-1,9.8345315E-1,2.2543259E-1,-2.4526823E0,-6.204195E-1,5.708494E-1,-1.32038705E-2,7.0023656E-1,2.1973026E0,1.0462904E-1,7.214335E-1,1.5654296E0,-4.2629886E-1,4.9584174E-1,-2.596169E0,-7.3630536E-1,1.7886152E0,-4.1102096E-1,4.161879E-1,5.104996E-1,1.2530136E-1,-4.3618613E-1,2.5453553E-1,5.4217416E-1,-9.7678E-1,-5.6412E-1,-1.5083893E-1,-7.8149676E-1,-5.116554E-1,7.4005395E-1,-4.314558E-3,6.067335E-1,2.8106883E-1,7.7798456E-1,-1.6314812E-1,1.5061703E-1,-2.0252934E-1,3.6001298E-1,-7.762982E-2,-4.5115745E-1,2.8129548E-1,-4.9080305E-2,5.7833437E-2,-9.06639E-1,-7.600583E-2,-3.772574E-1,7.066458E-1,2.4434891E-1,-4.1003543E-1,3.0333808E-2,2.1467859E-1,-2.739401E-2,4.2754516E-1,-1.4962219E-1,9.643765E-2,-3.5029164E-1,-6.833583E-1,1.18045956E-1,-3.0036634E-1,3.3827803E-1,1.4989534E-1,5.100648E-1],"categories":[],"categories_nodes":[],"categories_segments":[],"categories_sizes":[],"default_left":[0,0,0,0,0,0,0,0,0,0,0,0,0,0,0,0,0,0,0,0,0,0,0,0,0,0,0,0,0,0,0,0,0,0,0,0,0,0,0,0,0,0,0,0,0,0,0,0,0,0,0,0,0,0,0,0,0,0,0,0,0,0,0,0,0,0,0,0,0,0,0,0,0,0,0,0,0,0,0,0,0,0,0,0,0],"id":15,"left_children":[1,3,5,7,9,11,13,15,17,19,-1,21,23,25,27,29,31,33,35,37,39,-1,41,43,45,-1,47,49,51,53,-1,55,57,59,-1,61,63,65,67,69,71,73,-1,-1,-1,75,-1,-1,77,79,-1,81,83,-1,-1,-1,-1,-1,-1,-1,-1,-1,-1,-1,-1,-1,-1,-1,-1,-1,-1,-1,-1,-1,-1,-1,-1,-1,-1,-1,-1,-1,-1,-1,-1],"loss_changes":[1.9397255E1,4.8283295E1,1.9812475E1,2.1856504E1,3.0296932E1,3.1639835E1,3.3106438E1,2.0832985E1,2.6709002E1,2.268546E1,0E0,1.7310493E1,1.3328233E1,1.2281958E1,1.866421E1,2.2022596E1,8.45446E0,5.1358444E1,3.4821888E1,1.4938854E1,1.5667131E1,0E0,1.1330872E0,3.8438034E0,6.1452484E0,0E0,7.2652016E0,1.4517712E1,1.4482334E1,1.2438603E1,0E0,5.649338E-1,1.3038898E0,1.4846407E1,0E0,1.0622972E1,3.6571945E1,1.0086456E1,2.9538178E0,2.9026413E-1,8.459338E0,5.2119225E-1,0E0,0E0,0E0,6.8833547E0,0E0,0E0,1.9787381E0,1.7105398E1,0E0,9.956689E0,1.4615803E1,0E0,0E0,0E0,0E0,0E0,0E0,0E0,0E0,0E0,0E0,0E0,0E0,0E0,0E0,0E0,0E0,0E0,0E0,0E0,0E0,0E0,0E0,0E0,0E0,0E0,0E0,0E0,0E0,0E0,0E0,0E0,0E0],"parents":[2147483647,0,0,1,1,2,2,3,3,4,4,5,5,6,6,7,7,8,8,9,9,11,11,12,12,13,13,14,14,15,15,16,16,17,17,18,18,19,19,20,20,22,22,23,23,24,24,26,26,27,27,28,28,29,29,31,31,32,32,33,33,35,35,36,36,37,37,38,38,39,39,40,40,41,41,45,45,48,48,49,49,51,51,52,52],"right_children":[2,4,6,8,10,12,14,16,18,20,-1,22,24,26,28,30,32,34,36,38,40,-1,42,44,46,-1,48,50,52,54,-1,56,58,60,-1,62,64,66,68,70,72,74,-1,-1,-1,76,-1,-1,78,80,-1,82,84,-1,-1,-1,-1,-1,-1,-1,-1,-1,-1,-1,-1,-1,-1,-1,-1,-1,-1,-1,-1,-1,-1,-1,-1,-1,-1,-1,-1,-1,-1,-1,-1],"split_conditions":[2.03E2,1.943E2,3.4E4,1.84E2,5.867E1,1.237E1,3.9854E4,2.987E3,1.6573E4,1.985E2,-1.1149817E0,4.856E1,2.1684E4,4.376E1,1.17E1,6.349E1,6.3141E4,1.5985E4,3.7944E4,2.49E1,3.9854E4,1.4838731E0,2.015E3,2.013E3,2.015E3,2.2543259E-1,2.017E3,1.1E1,2.01E3,4E0,7.0023656E-1,2.3E4,2.013E3,1.969E3,1.5654296E0,1.999E3,6.2162E4,1.2831E4,6.5792E4,2.015E3,6.8525E4,2.014E3,5.104996E-1,1.2530136E-1,-4.3618613E-1,2.9277E4,5.4217416E-1,-9.7678E-1,3.4697E4,5.1E4,-7.8149676E-1,1.0003E5,1.504E1,-4.314558E-3,6.067335E-1,2.8106883E-1,7.7798456E-1,-1.6314812E-1,1.5061703E-1,-2.0252934E-1,3.6001298E-1,-7.762982E-2,-4.5115745E-1,2.8129548E-1,-4.9080305E-2,5.7833437E-2,-9.06639E-1,-7.600583E-2,-3.772574E-1,7.066458E-1,2.4434891E-1,-4.1003543E-1,3.0333808E-2,2.1467859E-1,-2.739401E-2,4.2754516E-1,-1.4962219E-1,9.643765E-2,-3.5029164E-1,-6.833583E-1,1.18045956E-1,-3.0036634E-1,3.3827803E-1,1.4989534E-1,5.100648E-1],"split_indices":[6,6,1,6,9,5,1,7,1,6,0,9,1,9,5,9,1,1,1,9,1,0,0,0,0,0,0,5,0,2,0,1,0,7,0,7,1,1,1,0,1,0,0,0,0,1,0,0,1,1,0,1,5,0,0,0,0,0,0,0,0,0,0,0,0,0,0,0,0,0,0,0,0,0,0,0,0,0,0,0,0,0,0,0,0],"split_type":[0,0,0,0,0,0,0,0,0,0,0,0,0,0,0,0,0,0,0,0,0,0,0,0,0,0,0,0,0,0,0,0,0,0,0,0,0,0,0,0,0,0,0,0,0,0,0,0,0,0,0,0,0,0,0,0,0,0,0,0,0,0,0,0,0,0,0,0,0,0,0,0,0,0,0,0,0,0,0,0,0,0,0,0,0],"sum_hessian":[5.549E3,5.432E3,1.17E2,5.391E3,4.1E1,2E1,9.7E1,5.185E3,2.06E2,3.8E1,3E0,6E0,1.4E1,6E0,9.1E1,5.177E3,8E0,2.2E1,1.84E2,1.9E1,1.9E1,2E0,4E0,4E0,1E1,1E0,5E0,1.5E1,7.6E1,5.174E3,3E0,5E0,3E0,2E1,2E0,6E1,1.24E2,7E0,1.2E1,3E0,1.6E1,2E0,2E0,1E0,3E0,6E0,4E0,3E0,2E0,1.3E1,2E0,1E1,6.6E1,5.172E3,2E0,2E0,3E0,1E0,2E0,5E0,1.5E1,5.3E1,7E0,7.4E1,5E1,1E0,6E0,7E0,5E0,1E0,2E0,5E0,1.1E1,1E0,1E0,2E0,4E0,1E0,1E0,2E0,1.1E1,8E0,2E0,5.4E1,1.2E1],"tree_param":{"num_deleted":"0","num_feature":"10","num_nodes":"85","size_leaf_vector":"1"}},{"base_weights":[3.5859065E-3,-3.4492534E-1,1.1351335E-2,-2.2961298E-1,-9.92012E-1,2.9035266E-3,3.214361E-1,4.3912973E-2,-2.79844E-1,-1.9164231E-1,-1.1393099E0,-4.490579E-3,4.204782E-1,1.6495531E0,2.3118253E-1,-8.437959E-2,2.0122145E-1,-2.960584E-1,1.6962159E-1,7.3550646E-3,-8.15603E-2,-1.202732E0,-3.771E-2,-2.4122028E-3,-1.352016E0,2.772928E-1,1.198419E0,-2.330166E-1,2.0499277E0,2.6752594E-1,-7.012768E-1,-2.6723185E-1,1.09020114E-1,-1.668325E-1,-3.883489E-1,-1.3042222E0,-1.8688524E-1,-2.052833E-1,8.28737E-3,-8.250296E-2,-1.4665868E0,3.2650122E-1,-3.2344648E-1,1.9990052E0,3.4810352E-1,2.3019707E0,2.587597E-1,-2.418496E-1,4.482259E-1,8.9476384E-2,-1.1718703E-1,-1.9831002E-2,6.8194464E-2,1.3513048E-1,-6.409117E-2,-1.2277791E-1,9.544192E-2,-2.663782E-1,-4.8785722E-1,-1.988986E-2,-1.012496E-1,3.1454906E-2,-5.1350323E-3,-5.476283E-1,-2.2232985E-1,7.4454516E-2,5.0813603E-1,7.4510825E-1,1.5745664E-1,1.490925E-2,1.9022556E-1,3.777738E-1,8.7748414E-1,-2.0999563E-1,1.3386185E-1,4.5131356E-1,1.0201038E-1],"categories":[],"categories_nodes":[],"categories_segments":[],"categories_sizes":[],"default_left":[0,0,0,0,0,0,0,0,0,0,0,0,0,0,0,0,0,0,0,0,0,0,0,0,0,0,0,0,0,0,0,0,0,0,0,0,0,0,0,0,0,0,0,0,0,0,0,0,0,0,0,0,0,0,0,0,0,0,0,0,0,0,0,0,0,0,0,0,0,0,0,0,0,0,0,0,0],"id":16,"left_children":[1,3,5,7,9,11,13,15,17,19,21,23,25,27,29,31,-1,33,-1,-1,-1,35,-1,37,39,41,43,-1,45,47,-1,49,51,53,55,57,-1,59,61,-1,63,65,-1,67,69,71,-1,73,75,-1,-1,-1,-1,-1,-1,-1,-1,-1,-1,-1,-1,-1,-1,-1,-1,-1,-1,-1,-1,-1,-1,-1,-1,-1,-1,-1,-1],"loss_changes":[1.50240965E1,8.800892E0,1.4223151E1,1.441195E0,1.9037285E0,1.6325981E1,1.6879547E1,1.4236858E0,1.3734527E0,7.603113E-2,8.130951E-1,1.4548991E1,9.915548E0,1.0334993E1,1.3322045E1,5.5958724E-1,0E0,9.7280025E-1,0E0,0E0,0E0,1.1323929E-2,0E0,1.1265121E1,5.8382225E-1,5.6212773E0,8.83465E0,0E0,4.0867615E-1,1.253436E1,0E0,6.747154E-1,1.8075573E-1,1.1940887E0,8.688636E-1,3.0433655E-2,0E0,4.755328E0,1.2095493E1,0E0,4.695177E-1,7.8251867E0,0E0,3.6979446E0,6.5119684E-1,2.1432877E-1,0E0,1.1660364E1,1.091511E1,0E0,0E0,0E0,0E0,0E0,0E0,0E0,0E0,0E0,0E0,0E0,0E0,0E0,0E0,0E0,0E0,0E0,0E0,0E0,0E0,0E0,0E0,0E0,0E0,0E0,0E0,0E0,0E0],"parents":[2147483647,0,0,1,1,2,2,3,3,4,4,5,5,6,6,7,7,8,8,9,9,10,10,11,11,12,12,13,13,14,14,15,15,17,17,21,21,23,23,24,24,25,25,26,26,28,28,29,29,31,31,32,32,33,33,34,34,35,35,37,37,38,38,40,40,41,41,43,43,44,44,45,45,47,47,48,48],"right_children":[2,4,6,8,10,12,14,16,18,20,22,24,26,28,30,32,-1,34,-1,-1,-1,36,-1,38,40,42,44,-1,46,48,-1,50,52,54,56,58,-1,60,62,-1,64,66,-1,68,70,72,-1,74,76,-1,-1,-1,-1,-1,-1,-1,-1,-1,-1,-1,-1,-1,-1,-1,-1,-1,-1,-1,-1,-1,-1,-1,-1,-1,-1,-1,-1],"split_conditions":[2.007E3,1.291E1,2.967E3,1.29E1,1.006E2,2.019E3,2.8E4,1.28E5,1.981E1,8.0753E4,3.922E1,2.953E3,2.199E3,1.2E4,2.019E3,2.006E3,2.0122145E-1,8.5E4,1.6962159E-1,7.3550646E-3,-8.15603E-2,1.02418E5,-3.771E-2,9.98E2,7.79E0,6.5257E4,1E0,-2.330166E-1,1.237E1,5.3934E4,-7.012768E-1,6.0146E4,2E0,2E0,3E0,7.7E4,-1.8688524E-1,2.119E1,3.19E4,-8.250296E-2,1.927E1,4.932E1,-3.2344648E-1,1.428E1,1.4233E4,2.3E4,2.587597E-1,5.515E1,6.0146E4,8.9476384E-2,-1.1718703E-1,-1.9831002E-2,6.8194464E-2,1.3513048E-1,-6.409117E-2,-1.2277791E-1,9.544192E-2,-2.663782E-1,-4.8785722E-1,-1.988986E-2,-1.012496E-1,3.1454906E-2,-5.1350323E-3,-5.476283E-1,-2.2232985E-1,7.4454516E-2,5.0813603E-1,7.4510825E-1,1.5745664E-1,1.490925E-2,1.9022556E-1,3.777738E-1,8.7748414E-1,-2.0999563E-1,1.3386185E-1,4.5131356E-1,1.0201038E-1],"split_indices":[0,9,7,5,6,0,1,1,5,1,9,7,7,1,0,0,0,1,0,0,0,1,0,7,9,1,3,0,5,1,0,1,2,2,4,1,0,5,1,0,9,9,0,5,1,1,0,9,1,0,0,0,0,0,0,0,0,0,0,0,0,0,0,0,0,0,0,0,0,0,0,0,0,0,0,0,0],"split_type":[0,0,0,0,0,0,0,0,0,0,0,0,0,0,0,0,0,0,0,0,0,0,0,0,0,0,0,0,0,0,0,0,0,0,0,0,0,0,0,0,0,0,0,0,0,0,0,0,0,0,0,0,0,0,0,0,0,0,0,0,0,0,0,0,0,0,0,0,0,0,0,0,0,0,0,0,0],"sum_hessian":[5.549E3,1.2E2,5.429E3,1.03E2,1.7E1,5.286E3,1.43E2,1.6E1,8.7E1,3E0,1.4E1,5.195E3,9.1E1,8E0,1.35E2,1.4E1,2E0,8.6E1,1E0,1E0,2E0,1.3E1,1E0,5.188E3,7E0,7.8E1,1.3E1,1E0,7E0,1.34E2,1E0,7E0,7E0,3.7E1,4.9E1,1E1,3E0,2.59E2,4.929E3,1E0,6E0,7.6E1,2E0,6E0,7E0,5E0,2E0,3.5E1,9.9E1,1E0,6E0,3E0,4E0,2E0,3.5E1,4.8E1,1E0,6E0,4E0,1.27E2,1.32E2,1.026E3,3.903E3,3E0,3E0,7.3E1,3E0,4E0,2E0,4E0,3E0,3E0,2E0,2.1E1,1.4E1,8E0,9.1E1],"tree_param":{"num_deleted":"0","num_feature":"10","num_nodes":"77","size_leaf_vector":"1"}},{"base_weights":[2.6647658E-3,4.407137E-2,-4.3424148E-2,2.7852625E-1,2.2907691E-2,-4.5315858E-2,4.878893E-1,1.8150091E-1,8.47176E-1,-6.87646E-2,6.4582564E-2,-4.1732218E-2,-8.22176E-1,2.8926E-1,-4.936074E-1,3.3196602E0,5.1164126E-1,-3.5862696E-1,-2.2691581E-2,5.766912E-2,1.2119992E0,-3.3517577E-2,-3.397968E-1,7.5021034E-1,-1.3515922E0,1.0921956E-1,6.0611284E-1,-1.7673514E0,-8.448497E-2,1.1617333E0,2.4919625E-1,1.9090892E-1,1.8696632E0,-1.6114557E-1,-1.3479464E0,8.6522734E-1,-5.0406817E-2,9.182154E-2,-1.2762427E-1,1.5740108E0,4.6278304E-1,1.184549E-2,-8.037564E-2,-3.0158222E-1,-4.4649068E-1,4.1923904E-1,-2.0680587E0,-4.3954507E-1,4.9194876E-2,4.854562E-1,1.2436855E-1,1.3041306E-1,-8.205355E-1,-4.0106067E-1,7.48609E-2,-3.3889186E-1,1.8660025E-1,8.2253116E-1,2.2445013E-1,-7.979876E-2,1.6104299E-1,-2.6879066E-1,-8.4566104E-1,5.581239E-1,-3.5738505E-2,1.31466435E-2,-6.914387E-2,-8.189698E-2,3.25462E-2,-3.366277E-1,-1.8181654E-2,5.401327E-1,3.2313254E-2,5.7904245E-3,3.3550644E-1,-2.2754699E-2,2.9493393E-2,-5.4146703E-2,6.2974845E-3,-1.366239E-1,-1.3626822E-2,1.8636438E-1,-2.800312E-2,-7.190788E-1,3.5105325E-2],"categories":[],"categories_nodes":[],"categories_segments":[],"categories_sizes":[],"default_left":[0,0,0,0,0,0,0,0,0,0,0,0,0,0,0,0,0,0,0,0,0,0,0,0,0,0,0,0,0,0,0,0,0,0,0,0,0,0,0,0,0,0,0,0,0,0,0,0,0,0,0,0,0,0,0,0,0,0,0,0,0,0,0,0,0,0,0,0,0,0,0,0,0,0,0,0,0,0,0,0,0,0,0,0,0],"id":17,"left_children":[1,3,5,7,9,11,-1,13,15,17,19,21,23,25,27,29,31,33,35,37,39,41,43,-1,45,47,49,51,53,-1,-1,55,57,59,61,63,65,67,69,71,73,75,77,79,-1,81,83,-1,-1,-1,-1,-1,-1,-1,-1,-1,-1,-1,-1,-1,-1,-1,-1,-1,-1,-1,-1,-1,-1,-1,-1,-1,-1,-1,-1,-1,-1,-1,-1,-1,-1,-1,-1,-1,-1],"loss_changes":[1.05934515E1,1.4502296E1,8.371422E0,1.3198208E1,1.0254659E1,7.2736564E0,0E0,1.5274588E1,2.7337679E1,1.1196568E1,1.4565749E1,6.3889713E0,2.4490147E1,1.0202138E1,1.4963085E1,2.2868729E0,1.3581037E1,2.2250587E1,1.7885052E1,1.1623997E1,2.2550488E0,5.4106684E0,2.6234312E0,0E0,1.4823164E1,1.0241521E1,1.1930319E1,1.6106554E1,9.955023E0,0E0,0E0,1.6073133E1,3.8170872E0,7.241331E0,1.0106045E1,2.1773193E1,1.1955619E1,9.453415E0,1.899333E1,2.130188E0,1.4320842E0,9.819309E0,1.2709356E1,2.6982732E0,0E0,4.7210324E-1,6.0293427E0,0E0,0E0,0E0,0E0,0E0,0E0,0E0,0E0,0E0,0E0,0E0,0E0,0E0,0E0,0E0,0E0,0E0,0E0,0E0,0E0,0E0,0E0,0E0,0E0,0E0,0E0,0E0,0E0,0E0,0E0,0E0,0E0,0E0,0E0,0E0,0E0,0E0,0E0],"parents":[2147483647,0,0,1,1,2,2,3,3,4,4,5,5,7,7,8,8,9,9,10,10,11,11,12,12,13,13,14,14,15,15,16,16,17,17,18,18,19,19,20,20,21,21,22,22,24,24,25,25,26,26,27,27,28,28,31,31,32,32,33,33,34,34,35,35,36,36,37,37,38,38,39,39,40,40,41,41,42,42,43,43,45,45,46,46],"right_children":[2,4,6,8,10,12,-1,14,16,18,20,22,24,26,28,30,32,34,36,38,40,42,44,-1,46,48,50,52,54,-1,-1,56,58,60,62,64,66,68,70,72,74,76,78,80,-1,82,84,-1,-1,-1,-1,-1,-1,-1,-1,-1,-1,-1,-1,-1,-1,-1,-1,-1,-1,-1,-1,-1,-1,-1,-1,-1,-1,-1,-1,-1,-1,-1,-1,-1,-1,-1,-1,-1,-1],"split_conditions":[2E0,2.5093E4,4E0,1.85E2,2.013E3,5.086E1,4.878893E-1,1.71E2,1.731E1,5.1355E4,2.987E3,